5.670885714789577862e-03,-5.396373003421215536e-02,5.022577784919620564e-02,4.267964413998752773e-03,-9.674536826330501493e-02,-9.445511741413303852e-02,4.022290139788074759e-02,-1.041669497689050872e-01,5.229828760277199784e-02,-2.042500862019445279e-02,-2.425580920621362227e-02,-6.233179815951310487e-02,-5.406194033980687638e-03,2.674766019032812081e-02,-1.985278191778410695e-01,4.843560061843484726e-02,6.658125132319663020e-02,-4.345003764970668120e-02,-8.509929437812117914e-02,-2.578815861985799679e-02
-2.552590274915407867e-02,-6.657261119152391160e-02,-9.209389273671093890e-02,3.024662354429278124e-02,1.362650439012089154e-02,1.078971914074481619e-01,-2.542723703714777628e-02,2.608607615262703225e-02,2.058294439596185590e-02,-4.659060944609066252e-02,-1.454484080717848883e-02,3.765702717690775497e-02,-4.212830304599767678e-02,-2.200162525216398102e-02,3.960103928492198638e-02,-2.737491755503970725e-02,-7.529084277506421785e-02,-8.603903161345283213e-02,1.785119554952806567e-02,5.981261594203408222e-02
-9.047984999793133587e-02,4.175610863950728058e-02,-9.509357084940057991e-02,-1.051429183979831275e-02,-5.991422680856880317e-02,8.875053732703887255e-02,1.023474012064506944e-01,-1.434322223155464274e-02,-1.756831593739079794e-02,2.563292301900822398e-02,-4.745117410469949781e-02,-2.420109892477678368e-02,4.139742059848078304e-02,-7.548272177806329697e-02,3.029047547241677657e-02,8.811543509529831675e-02,-5.156303167563612566e-02,1.590086520515945120e-03,6.020416199181628097e-02,8.599153699911378859e-03
-1.081027510622811771e-02,-2.676109004830691182e-02,-1.238068655245351361e-02,-1.386102810681615893e-01,-1.546629473204407142e-02,-1.664305241742568969e-02,-3.825497018252350945e-02,6.044638097918438036e-02,-7.186646471585875218e-02,1.497099539941533497e-02,-1.566464168305968171e-03,-2.555310693828270318e-03,-5.514931098562269457e-02,-9.971975767073019969e-02,-1.087073271233524561e-02,-5.274150661291147207e-02,1.782461099468095680e-02,-4.411394266578638756e-02,-5.141520559562192533e-02,7.826908578824218199e-02
8.235680085610072587e-02,-8.828830167346657376e-02,-4.983151937422190120e-02,-8.669098738390701442e-02,-5.639290617730562116e-02,2.366432404504572803e-02,-1.231468227145603722e-01,-8.835913180640683762e-02,-3.066070038715031434e-02,-5.142512652247487742e-02,-3.082729998828329793e-02,7.676349126411165236e-02,2.788769232067198067e-02,-5.241379880829285381e-02,6.296295078437100234e-02,-1.237705233582241104e-02,2.115736994883344116e-02,2.335619512538759587e-02,1.890208238994051104e-02,-5.253029963804165675e-02
3.077689539268806812e-02,-9.988767775773690905e-02,5.284190245823121301e-02,8.448294110969888082e-02,-4.613851450047561087e-02,5.502559907639362896e-02,7.472126951505754511e-02,1.098874993316783788e-01,-1.081271692164000875e-01,-8.198005171619314468e-02,-9.651618801601379721e-03,-6.748168822703327907e-02,-3.889121592362774354e-02,2.666453470552902424e-02,-2.932445588093937280e-02,-5.003757871107223504e-02,-1.629824639075756407e-02,-1.070262007297956147e-01,1.484368500330846376e-04,-1.461929595235817933e-02
-5.819656021084222697e-02,-1.769151157868265739e-02,-4.293076669369692844e-02,-3.831541390623472570e-02,5.072989847615241160e-02,2.724677520413821066e-02,-4.288564746174331616e-02,2.743958160377572147e-02,-8.368232209836234947e-02,3.294286112580496750e-02,-5.482625647356052789e-02,1.060302670613880449e-01,-5.285358169609869622e-02,-4.934784338648111335e-02,-9.378601804718814106e-02,3.798619565065309428e-02,-3.000481765993589373e-02,-1.398989741093022154e-01,-1.227567941094082917e-04,-1.412812832534830476e-01
-1.632422033744364287e-01,8.821539809450378022e-03,9.150999702514342471e-02,-1.240491102940007723e-01,1.484173747964676396e-03,-3.831442926012353090e-02,2.102523489428628420e-02,-5.496625949019110641e-02,6.323371724986000253e-02,-2.711906194705241205e-02,-5.462592889715146838e-02,9.517634297537821975e-02,8.694663218175721631e-02,8.944519187578360564e-02,-4.376129756409003618e-02,-1.078862254589093433e-01,1.372028436342496646e-02,-1.175783486471152460e-02,-2.545693629518850851e-02,5.061839176965526876e-02
2.328439708076289819e-02,2.237626757327491542e-02,3.381382146023930585e-02,-2.009729797679688304e-02,-2.006688001153799500e-02,-2.751159243530789875e-02,-8.538204929764271756e-02,-7.330295936339925600e-02,-4.913592529846022572e-03,-2.029018875547091219e-02,-3.483784063010510190e-02,-1.094863162273949919e-01,5.955695690222639893e-02,-1.174520598001558003e-01,4.538565018985660920e-02,-1.968840522939242429e-02,6.098102886805729754e-03,2.832305116387974150e-02,-9.749801036278531174e-02,-8.922827304674858795e-02
-1.006369203145861119e-01,-7.338511792155878732e-02,-2.372573742377677777e-02,7.786983817024420267e-03,-8.342541409139734437e-03,6.313682312097883276e-03,7.890522034625270520e-02,6.963626362876594589e-02,3.141299793338073881e-02,-5.439649991446499772e-02,1.252750275052935125e-01,2.177775783439368090e-02,7.090551258611714480e-02,1.948807300678681229e-02,-4.167104226908102151e-03,-7.190838965428293650e-02,8.705942751372867938e-02,6.317565242789315375e-03,-1.164517805444897046e-02,-3.663392137105925955e-02
9.193946259825480508e-04,1.176521359533471145e-01,-1.024503386665137107e-02,-9.121707168049017489e-02,6.647594934994623117e-02,-3.146857522714936739e-02,-1.263846215338962180e-02,-4.218876850630063485e-02,5.559353769187910105e-02,-1.211675151011150781e-01,1.231992804301393768e-01,3.069995166709531004e-03,-9.826492661713018273e-02,3.693039940983915831e-02,4.097895967265590376e-03,5.660508366510512424e-02,4.393742590477080212e-02,6.305589274373769870e-02,-1.692079891732741273e-02,1.308224067798721343e-02
-5.090654919560980325e-03,-1.730628993519711389e-01,5.897540390579565639e-02,-7.174944449733645924e-02,-6.237104437384554528e-02,5.686763028330064917e-02,-4.323946152150361100e-02,6.088092138029033151e-02,-7.091084545458317678e-02,-1.827695936719856210e-02,-1.067973955197247110e-01,-2.995902187081385913e-04,-1.757920756608070262e-02,-7.200766603328073636e-04,1.299824359273674124e-02,3.304377098189680700e-02,3.610471218985155523e-02,-3.285084051883956774e-02,1.473915230103043927e-01,6.661384353741176337e-03
1.687784715383584266e-01,2.797491174724817814e-02,1.891882248942885689e-02,2.579925813097638451e-02,-7.585277959977980433e-02,3.428888667321264381e-03,1.516570041933605270e-02,-2.365964339266086059e-03,-3.380182745729583271e-02,7.861723675853860005e-02,-1.097131838874954302e-01,7.182776789577065280e-02,4.614451001213595166e-02,-3.890681408039790151e-02,-1.056393424027077116e-01,-4.605394410897314939e-02,-1.578462471846114532e-02,3.333010523991801477e-02,5.989256065941445106e-02,2.690430737630126329e-02
9.252576594718833758e-02,-7.240227885817823728e-02,5.648077294621478561e-02,9.807112902077606831e-03,-1.048906148449970516e-01,9.543973415328836640e-02,-1.358489864232557964e-01,-1.781209550381905246e-02,-6.568940929649796923e-02,2.108912463195887575e-03,-5.564712229100787083e-02,-1.180163373455491022e-01,1.076329033480684511e-01,6.789902392792956931e-02,-4.965615913463766046e-02,-1.759106241201463250e-01,-1.299326782791907220e-01,5.367013993903572283e-02,3.877795235413719621e-02,3.910226298229271813e-02
-2.528776580026236356e-02,-8.819561108879989120e-02,-3.128179115122835946e-02,3.620419999341512041e-02,1.219851360757005648e-01,2.510138799631790596e-02,-1.135101167218678930e-01,-8.817305946100241487e-02,-1.705957525341985498e-02,2.975628998973432748e-03,3.702785580721967146e-03,-3.824979559739270785e-02,1.392888133840785025e-01,-1.334306206905624959e-02,-4.749621729839808432e-02,-9.899675895159910921e-02,-5.701397444552027544e-02,-2.984462445190993671e-02,-5.520733080603124759e-02,6.409887124954584403e-02
-1.494237152554286734e-02,4.227258317246956193e-02,6.979374469431322281e-02,-1.047665073108409312e-01,2.851689198829602048e-02,-4.078749715731802561e-02,-3.362714155026046148e-02,3.605356929726586529e-02,4.059462402498495480e-04,4.926429750316780459e-03,5.104517001665313802e-02,4.628076820388998813e-02,-1.317127135337758242e-02,3.503762921459788182e-02,-8.869391374909277315e-02,6.957334903584576000e-03,-8.297673559774176866e-03,-6.912841018156040684e-02,-1.657431222756711089e-03,9.355475349629861770e-02
7.470269588081256129e-02,1.802987748636363519e-01,-2.734748918959884964e-02,-8.686838471932742389e-02,-8.266671908195781515e-02,1.050714690934866601e-02,-4.239107970980205559e-02,-5.101098988327572997e-02,-1.124611265139482258e-01,-2.859975781212166154e-02,1.050597214848902755e-01,-1.607973051821296462e-01,5.839044456568413116e-02,7.237816740224854717e-02,3.096570351377878755e-02,7.034173274262972564e-02,-1.585593191405483549e-01,5.215835678643186007e-02,1.248772834483006210e-02,-2.148008994665773566e-02
-4.638990591998098934e-02,2.134762735138096348e-02,9.141277849175348524e-02,6.784585902715518924e-02,4.589521542670833149e-02,-7.905529882884644588e-02,9.328576151932907456e-02,7.710982076478407887e-02,-6.250209840632134362e-02,-1.022770120695532248e-01,4.115477890407407552e-02,1.113050534414195269e-01,-4.800730791145770004e-02,5.173922222405743371e-02,3.881203167692202916e-02,-3.146408432372354430e-02,2.928205680878321303e-03,3.654156674931274135e-02,1.102417469180602544e-01,-2.570594309602452880e-03
1.465936538573455461e-01,-3.786792618762862411e-02,-6.251594043119876321e-02,-3.778752460772238919e-02,-4.224369460657158293e-02,9.282282673468245093e-02,6.348030955217832949e-02,1.214951076430981353e-01,-1.160147957422556948e-02,-4.420333719413722245e-02,4.894473979646919888e-03,8.688862656212625879e-02,5.743401415217389699e-02,-4.198747153905617313e-02,-2.967542634961078604e-02,-3.402803130265143194e-02,4.647003390043423152e-03,4.134390214716821693e-02,3.556904488313807067e-02,-1.501185051013509131e-01
1.558723695501118642e-03,-3.068012294499254319e-02,-2.951358196070137403e-03,-1.429895351994090163e-03,2.179991156947245611e-03,6.368204254996572000e-02,7.551642309882232451e-02,1.835381021816061406e-03,1.355496282036085416e-02,-1.160734211069145705e-01,4.134894879408884671e-02,4.522254197984724999e-02,-2.497090577591129425e-03,-3.808880747086912377e-02,9.523246477293207529e-03,-6.452282748547294444e-02,-2.794786662707225526e-03,-7.618838383055159813e-02,3.879898080919129411e-02,3.672932031227129496e-02
-5.986499543364985632e-02,-4.510348430743667952e-02,4.924063683989806511e-02,1.019870406091788820e-02,-5.823727810042197278e-02,2.620504008886925459e-02,-1.036076762653410054e-02,1.743973048225959388e-01,-1.306851625101064507e-01,5.409220752302944246e-02,1.654247065859146548e-01,1.113288862420663411e-01,5.222697302931675507e-03,1.008832044133187861e-01,1.206631151322128115e-02,-1.094162941361396732e-02,3.321851207463048100e-02,-9.369678587519440771e-02,-2.175394379350239701e-02,-2.486758160371497703e-02
-6.305470513651365884e-03,-1.448664646163671556e-02,6.082270007426919534e-02,-1.922449808346078301e-02,-8.010827109656035172e-02,-3.006175140362646325e-02,-8.798445132787324763e-02,2.446569674793142371e-02,-4.075923942517627879e-02,1.239237070707557148e-01,2.665219937955984678e-02,-1.137208283818881421e-01,7.050512406387908493e-02,-5.002924457424564458e-02,1.120637792969043228e-01,3.294456252856058781e-02,2.563631028838502315e-02,1.153976642290801130e-01,-1.618194721921773493e-01,-8.573650155191689382e-02
-2.038257358477744800e-03,2.151759666134866328e-02,1.157227407095031690e-01,-1.102097046346870307e-01,1.576084827893856760e-02,-1.064900341639245518e-01,2.995465733733113783e-02,-4.089358921772868333e-02,-5.120542312946069902e-02,4.837309464689778550e-03,7.514683003162225816e-02,2.908320434548139488e-02,-1.289169286114249212e-02,8.318498543043925664e-02,-7.820177384180801439e-02,-7.835262790224326035e-02,5.943829387469073966e-02,-1.124717238267231544e-02,-8.619126696117432318e-02,2.798552354589478597e-02
-5.268944136209403883e-02,8.610090584600360586e-02,-1.050901043044082522e-01,-6.864568244252590434e-02,2.519718118694391079e-02,-3.047009340807923725e-02,4.380865691307740672e-02,-2.851462751024730694e-02,1.477129862140387669e-02,6.171491490837758415e-02,-3.888390832074848074e-03,5.581567825920141085e-02,-2.824093283087329015e-02,-7.868012235017150455e-03,-7.762848615503183114e-02,7.031262727592652029e-02,-5.074869656164622544e-02,-1.887204842901894428e-02,7.559335447296662569e-02,1.053991083798828804e-01
4.649169070386845182e-02,5.536401654543719394e-03,7.733366867665485145e-02,-4.003989955465985656e-02,-4.009094434644290550e-02,-1.761302676600872905e-02,6.578872576159483510e-02,1.289227395367618760e-02,-9.814748648983860624e-02,-7.431701615572050557e-02,-4.329503166990215923e-02,-4.411317651582221527e-02,-4.108732803001716866e-02,1.559180072609777160e-02,-1.686412304152835606e-01,2.266966590540544450e-03,-1.529660420246188313e-01,-5.901687990195247924e-02,1.409945495478626305e-02,7.862344636882435955e-02
3.088204618252296876e-02,5.366125736928102977e-03,3.960909457439620342e-03,-9.599396239721831592e-02,-3.411717640245074713e-03,2.420072318431648606e-02,-1.264798761935874720e-04,-1.433299538403944307e-01,1.708187208970917415e-01,1.184749839616570516e-01,-8.669513310252251193e-02,-2.238157589171946293e-02,1.244057252959622634e-01,-6.485742864796380236e-02,-1.482195247051728247e-02,-3.648984249918830330e-02,-1.681367949479180279e-02,1.564461606645494926e-02,7.973825904168344719e-03,-5.383112270280392131e-02
1.155630568886912707e-01,5.606937752974435613e-02,2.375054852725890647e-02,-4.188232641918603061e-02,-2.528186183949629115e-02,-2.620029206818580425e-02,1.745070591593246914e-02,-9.993612005474945825e-02,-5.663983118944095063e-02,-1.382962350207731783e-01,1.180263914183804913e-01,-1.403974587868284281e-02,-8.004677419362218535e-03,7.702734342183308047e-02,6.034922428996324778e-02,-1.002752813343065971e-02,-7.388292076439957612e-02,-4.720176544258596757e-02,6.361865851139165973e-02,-2.778218667049072582e-02
-1.156574717320534408e-03,-5.934910687503962973e-02,-3.828554655344983647e-03,-1.048899279001228729e-01,-4.013760117966751195e-02,1.051244692426602477e-02,-1.562624383430178399e-01,-1.020243347373288451e-01,-2.873951624921359388e-02,-1.934419459292441648e-02,-2.400289726530021803e-02,-1.079512938338635618e-02,-9.813466649190198676e-02,8.196029153346910678e-02,-4.488678297569491382e-02,6.992133850953678731e-02,7.379468863312887983e-02,1.507824577921358308e-02,-8.191952344163551392e-02,4.173977702075602064e-02
-1.899337848768161210e-02,-2.289422752053684243e-02,2.604904595174086998e-02,3.791826465916164034e-03,-5.506774528667783553e-02,-1.301922150758594576e-01,6.493997831362112449e-02,-1.034339042213172771e-01,3.764361691219551137e-02,2.303766221246131632e-02,1.590004386846194037e-02,9.387855970199194058e-03,-2.995672492234800061e-02,5.748737214718892957e-02,-1.319797906174661750e-01,1.318972995520417135e-01,2.764075951918196564e-02,-4.099525888659636894e-03,-2.161198778365550424e-02,3.988594543875937509e-02
-3.799829348918019878e-02,-6.603492177107908589e-02,-2.787293631963271706e-02,-5.622249911091758284e-02,2.496575092491054582e-02,1.341266602684758899e-03,-4.316447127801017331e-02,-1.378116598154712491e-01,5.643346321936900528e-02,6.292610259870777545e-02,9.369328284338648838e-02,4.215885950785720933e-03,7.256541172071369339e-02,-8.026926389268028428e-02,-9.091293039972551948e-02,1.174719175520528847e-01,6.198289163499781478e-03,1.125956442837915267e-01,6.545535637013123742e-02,-8.553148789500754356e-02
7.641985461627688603e-02,-4.241969491335227660e-02,7.339355080681256305e-02,-2.144931861723525096e-02,4.829625701908606822e-02,1.411491821014969616e-01,-2.091712208789488561e-02,5.707404287501938178e-02,1.073245674834204244e-02,-9.372736322784316898e-02,3.339604257638505852e-02,-1.989649353152616873e-01,-3.608768668555863840e-02,-4.460121472279626048e-02,5.510277174415775109e-02,5.916789480095138547e-03,3.360893569825937344e-02,8.191143536728195951e-02,3.920391499095976853e-03,-2.860032242484836923e-02
-1.086041994452362491e-01,-6.034762256677576701e-03,-1.910008429978242092e-02,2.538941767871609793e-04,9.441176793174398119e-02,5.335086733116651408e-02,-2.481472812893499233e-02,-1.319588836425815148e-01,7.478520674400609969e-02,-1.377154890748112301e-02,4.870620930118596537e-02,-8.744100004370304602e-02,5.694910686429934671e-02,9.453723540301629813e-02,1.922855577138499750e-01,5.207527840282661497e-02,1.912001173846930580e-02,1.174463200940972923e-01,-2.149229376271457465e-02,-4.711249255707489897e-02
-8.286433408019397429e-02,6.096650076562949716e-02,4.007886568027026197e-02,8.798953694665433145e-02,-2.227763212420190778e-02,1.054318532007580272e-01,-1.047798362978475811e-01,-4.104956839915497452e-02,-1.677626198353126263e-01,9.485134919731584568e-02,-5.104692692950613814e-02,-1.514990696079542530e-02,-1.255391137205162655e-01,-7.640363592881084520e-02,-2.528585085147698128e-02,-5.183314086580166624e-02,-2.741118827132937169e-02,1.131953488487316001e-01,8.881509476569160455e-02,-4.179034722220888176e-02
1.593286207203073179e-01,-4.948947632633914073e-02,9.885023163441873650e-02,2.351396697448394565e-02,-4.077125754576458114e-05,-1.052415938318135985e-01,9.996469571614641225e-02,8.094772263045653393e-02,9.018410130578813355e-02,4.053612544972549220e-02,-5.265731034364045521e-02,-5.214053690831949549e-03,-5.493990221677676200e-02,-8.736099883775159947e-02,6.876337330498126510e-02,7.866284079366200888e-02,-2.357336824623038063e-02,3.577010921886385891e-02,-3.569006009266830620e-02,3.041677294379771870e-02
3.608061793256480548e-02,-6.526446991185585848e-03,-2.094558207422462723e-02,5.729661636925258150e-02,-1.279101824590740677e-01,-5.089825071457266398e-03,-7.933199378777261446e-02,7.621787045524429371e-02,-8.001597511346658642e-02,2.804577738332267312e-02,1.259262882308544336e-02,4.905357608099304018e-02,-2.292293521195627390e-02,-3.160879112527653634e-02,-3.542515025172783549e-03,-3.507043404740392556e-02,2.324677752745292134e-02,8.675935317679875358e-02,-4.801721812002054945e-02,-5.367785116376493776e-02
-9.145762331995557770e-02,5.627471067035685892e-02,-1.948186019086247875e-02,9.484694425784696847e-02,5.271307669575803906e-02,7.634435878203883752e-02,-8.851625899675074141e-03,1.508326721126550599e-02,1.178633455806435276e-01,2.485207180577445746e-02,5.972039076903465360e-02,3.990152643497384827e-02,2.166093350170743628e-02,1.039400295557539600e-01,5.997050018695661289e-02,3.334613312206342883e-02,-3.123038479461542893e-02,1.422231419978047494e-02,-4.278430222395322377e-03,-5.308814959238579434e-03
-1.848062516330093580e-02,7.099474831385001183e-02,9.223761311591281709e-02,-3.622360240745937932e-02,-5.745979204295795922e-02,-1.332515242554238588e-01,-5.025488216797212304e-02,-1.634836208864279619e-02,1.192479097413879918e-01,1.812916959141175691e-02,2.734938880646000520e-02,-1.019655450852275241e-01,-5.520081891095406090e-02,1.448739004970958921e-01,7.887433111900041260e-02,-6.607202722820712526e-02,7.620595280485843726e-02,1.231599784135621600e-01,1.301681761835738471e-01,-1.140577976362834589e-01
-4.060287813607130203e-02,-1.160545843618747686e-01,1.001354052419591197e-02,-8.074846920561401520e-02,-3.349726029508548475e-02,-6.062999037707837713e-02,-1.930989377435613288e-02,-1.325107379448433598e-01,9.662502252127763702e-02,1.540101677113882815e-02,-2.848827214685894713e-02,-1.056863991621961041e-01,-2.819903216747500496e-03,1.233657194717644422e-02,6.829707841106835708e-02,-2.607663835893367366e-02,5.699051132618202127e-03,4.292231810896653121e-02,9.962049175369627751e-02,2.994933325151407071e-03
-3.505904433354839478e-02,-4.081198168996654635e-02,2.748410935064048849e-02,8.145826096912675562e-02,2.157502944916094012e-02,-1.205877023396874220e-01,3.611576675139207410e-02,-3.753452995934417058e-02,-3.055302795772175256e-02,2.449188269894506109e-02,-6.364661085141196106e-02,-8.946178440344174088e-02,-6.487029635440463848e-02,-8.034555669225119847e-04,8.965505267210562013e-02,-6.232293685487326484e-02,-7.414068554029494551e-02,-1.555809102671265078e-02,3.826697922019347414e-02,3.070656276345257174e-02
-1.504692631052541134e-02,3.229656522760656484e-02,2.741808508084930124e-02,-8.853650253687410723e-03,-3.228492992079327190e-02,-7.956400108855449238e-02,-7.947089239920779313e-02,8.341798166226024880e-02,-2.104197855450094801e-02,-1.061025343381896552e-01,1.560641879811224507e-04,1.695423865022432572e-02,1.201303154391720751e-01,4.813140790337341185e-02,7.879429006198526708e-02,-5.087733963952912469e-02,-7.607337523401681845e-02,1.177785352238801264e-01,4.777620135093890025e-02,-1.035162829313172189e-01
-1.076443479623989674e-01,-4.169127930895586559e-02,-4.265432557060290508e-02,-1.173547071427182009e-01,-3.013230054625683305e-03,-1.687948794650703105e-02,5.627533067690686924e-02,-1.458985286113974335e-05,-3.899961354584716849e-02,-1.720912154542712097e-02,2.675358894718724359e-02,-6.115071851673422459e-02,4.653574766625076520e-02,3.945864945093693725e-03,2.096689449266292971e-01,-2.177038304495544085e-01,-5.575810959979077275e-02,1.136781110537693137e-02,9.000327833018127721e-02,-1.992752687378433196e-01
-5.501151323583407943e-02,-9.284172986324942811e-02,1.357180396512151777e-01,-3.981240864165838667e-02,-4.147124551949957216e-02,-5.180073116221843577e-02,9.494117540594057547e-02,4.585127871981856812e-02,9.065897940664999211e-02,-3.258856925239691366e-02,5.972239610264307857e-02,-7.384860673257105657e-02,1.283584405264719674e-01,3.894055681479576328e-03,1.276966548988981050e-02,-4.510350519227672439e-02,-4.594171014203860676e-02,4.964273843893378391e-02,8.491831115342905745e-02,-4.920955027711566843e-02
-7.589844475786981792e-02,-8.444696976414407807e-02,-2.297936573417754327e-02,-1.088717240481027887e-01,1.461991984549832098e-02,-4.575478184724898062e-02,-2.711801733195138425e-02,5.236652388166176258e-02,8.131246201737933610e-02,-1.399428089673534700e-02,-3.185876763457591576e-02,-6.746901256166380756e-02,8.999564755936930501e-04,-9.335964069663627712e-03,1.045909361809595067e-01,-4.328768058421750275e-02,-4.976486603705241631e-03,2.916558934076225393e-02,-6.363981288916208123e-02,5.225344321962958200e-02
-6.205383643896063284e-02,1.501139760272160104e-02,1.904361005442781543e-02,-4.055834333305421979e-02,-1.376562339636656362e-01,2.644361057622583028e-02,8.196085658961015097e-02,-9.065765081495708033e-02,1.953747408082292247e-01,-1.262853861890998186e-01,-9.093073336315492250e-02,8.024766018095229325e-02,-2.884404351000144709e-02,5.176376472155158615e-02,-2.760627517654994784e-02,1.531707195048958615e-02,-5.448591044741940559e-02,6.055302780681149494e-02,9.957390176653195535e-03,-4.421586428197885749e-02
2.267876285909062751e-03,5.385074127573784286e-02,3.274543407060882816e-02,3.990360473318007445e-02,-8.746324569521289616e-02,4.715314452040389459e-02,2.013142556434656116e-01,-6.055792521039648872e-03,2.335833537745728508e-02,3.823855863908060676e-03,-3.689144236812125222e-02,-6.459370160336079525e-02,4.199739902457202967e-02,1.193440607893655678e-02,4.623798203178514196e-04,8.970439221369895522e-02,-1.045004546273296461e-02,4.345043116666737898e-02,1.284529144798859934e-01,-6.840312428963260527e-02
-1.043230544941201460e-01,-2.632941495347547456e-02,-4.072798066163917791e-02,6.434523430126598553e-02,-5.402920347691947400e-02,-8.000689738414576424e-02,-2.486654820454772125e-02,9.309150520666938100e-02,1.120383000670532869e-01,7.936444828107213842e-03,2.056473387094282478e-03,-2.894489358318003830e-02,6.538229304290803234e-02,-6.811772876865107573e-02,8.553888753323427019e-02,5.839182737036653636e-02,3.704398326449926532e-02,5.500726092805129780e-02,-7.987648590455835584e-02,4.773512479243422336e-04
-9.639819515933122085e-02,1.868777501359321358e-02,-1.378118435871901748e-01,-5.880610208854892412e-02,7.349308620349409571e-02,3.998753784234334446e-02,1.312410887996486031e-01,6.339647242467881527e-02,5.931313828444439995e-02,-2.561778368596427310e-02,4.187310810986411003e-02,5.767168802853664400e-02,4.511881414752401398e-02,2.767596848493986128e-02,3.967738575865110105e-03,1.001178275548506441e-01,-2.014053887838605783e-02,-1.052109336775481629e-01,8.434624772338665186e-03,-5.883042850319249693e-03
-5.050957051983059887e-02,-2.365824468298935099e-02,-1.032586115704909463e-01,5.014060136824231156e-02,4.959762710679214287e-02,-9.817970422693887700e-02,4.476472222612451479e-02,-6.574655584894759097e-02,1.102316131750491063e-01,-9.318152039299111566e-02,2.671512777017251428e-02,-1.664575086494974807e-02,-4.217919034947200177e-03,-6.196303368717916843e-02,5.854605289372376981e-02,7.284499891773343373e-03,4.374553177545750446e-03,5.913576719362795969e-02,-5.638491467579763439e-02,4.346754659290897466e-02
5.199574010441024297e-02,-4.442280511936093357e-02,8.321588626871111172e-02,1.023661003357834581e-01,2.090854783478897361e-02,1.847601957358045721e-02,8.010025818770341935e-03,9.631634372036602942e-02,9.880458679527455434e-02,3.831962004240749287e-02,-7.554148835016523400e-02,2.123730979625158277e-01,1.164650650835010424e-02,1.030634881065560643e-01,-8.373970800930585767e-02,-1.070369514927290155e-01,-1.164087352764964639e-01,-9.495158668508604793e-02,6.384416485600219460e-02,-5.519140026914144681e-02
-4.603134548065851428e-02,5.186049595671657700e-03,1.095793812766609476e-01,-1.134824212327987386e-01,3.045220977460586301e-02,1.825657135744408743e-01,4.881309053636070233e-02,1.765401475314184662e-02,8.894662734338182331e-02,-2.302849966720321162e-01,-5.855467003777451579e-02,1.151471918693097556e-02,2.161514702486716857e-02,8.162780710277288410e-02,1.405592772692473014e-01,3.995884283448135517e-03,2.776977387318444943e-02,5.857150515007044506e-02,7.997763270421992532e-02,1.399407122130481296e-01
7.857603673578011927e-02,4.460595044812966370e-02,1.889351543818425239e-03,9.639326839360804963e-03,-2.602758553185840693e-02,4.620234868392510130e-02,-1.314488316779781167e-03,-1.732844372664986768e-02,-1.585643718906413688e-02,1.008359986799226872e-02,-1.725191506705924666e-02,-4.030377727684542055e-02,-2.356369236447793461e-02,-4.838675559703055351e-02,3.199100456438943446e-02,2.493100203367361670e-02,-3.892856355226591292e-02,-1.557232912854876299e-02,2.964606018890348152e-02,-2.435450986510701715e-02
2.319207521481524842e-02,-1.689762241253007710e-02,7.768459219983337230e-03,1.232255458962560890e-01,1.130735544444836371e-01,1.616367559957922542e-02,1.613459647926312676e-02,-1.048850309009926596e-01,1.058063522887179447e-01,-1.206386111386862359e-01,3.725952612266149322e-02,-4.480667002683833000e-02,-1.374900850633297145e-01,2.488055068038404639e-03,7.172379993422928202e-02,5.560143977349376460e-02,9.775739465384493398e-02,3.148382155508283597e-02,6.804610088969981208e-02,-8.214090157555462013e-03
-6.729584100593763440e-02,9.141429343195163482e-02,-1.567217684974190738e-03,6.581688170771934909e-02,-1.769582920199945855e-02,6.025415425509472039e-02,-1.072093654528978764e-02,4.348759309263877312e-03,3.480584082237285493e-02,-1.100197356266749832e-01,-1.554496440896389331e-01,-2.172204567838884742e-02,3.055648149431265323e-02,-7.749497374212903876e-03,1.444664579609576671e-01,6.450869492015863516e-02,-4.530731474493465694e-02,8.271574824945286675e-02,3.442375369960578441e-02,3.547379370652788827e-02
-2.580735765584207808e-02,-1.106939839495960642e-01,2.144958064762458178e-02,-7.687621959155981066e-02,-5.335525986981955876e-02,-6.702068785681110363e-02,4.890304514471811165e-02,1.909192358458486338e-01,-1.687906249988012919e-01,-5.231682372006563747e-02,1.722034220242752225e-02,-9.384554933768897433e-02,6.785372183665685543e-03,-9.443248392796118121e-03,1.266443457324038790e-01,1.070346938697543798e-01,-1.608322797689704792e-02,3.398224795537045650e-02,-9.638863360045827472e-03,-1.195451977023849061e-01
-1.282463217365517050e-01,-7.865412689338553698e-02,-6.054441097504455888e-02,6.905744324793762316e-03,-9.977596423727744246e-02,1.316560478815852753e-01,-6.965454383435003283e-02,1.418783551952070530e-02,-7.601296462429237011e-02,6.154430530769879060e-02,1.957366958399525680e-02,-1.449587597694385055e-02,-2.018172437664057448e-02,-3.761342145509879303e-02,-2.213543084503167158e-03,9.097253415732539650e-02,-6.206336895598492734e-03,-8.437403166318553638e-02,-5.713505138841652731e-02,-4.642251356011297542e-02
4.740705587194770504e-02,8.731317412647354725e-02,-3.349352871320834812e-02,5.120205061766593818e-02,4.742482752922384803e-02,-8.150792022112307578e-02,6.033845902788812637e-02,-5.907644490917497021e-02,-2.388096923128040644e-02,-4.908987658046615882e-02,-2.340257238552514996e-02,-4.182327758216498881e-02,1.112170918395799651e-01,-3.147240357429909041e-02,-8.814003021815938754e-02,7.246910343272044107e-03,9.630401963817494804e-02,-5.077929364457835909e-02,1.693865224677499060e-01,-1.091187021070072066e-01
9.312369882798376963e-02,-2.539083905772774631e-03,9.543700517154470042e-02,5.909993851643097901e-02,3.927234816777741555e-02,1.807638101816800734e-03,5.644689047350599787e-02,6.832457560714527700e-02,-1.696257480231384146e-02,-1.009633444808269026e-01,1.454159103672359732e-01,-3.644297232171894718e-02,2.109643989131568254e-01,8.873325856323754923e-02,1.984965878646161030e-02,-1.243625058474210482e-01,-9.218608086433901366e-03,7.858021728554757945e-02,-3.755696890857305320e-02,-4.180476233065789221e-02
-8.426869466671735309e-02,7.035830893039858591e-02,-4.557767023531317241e-02,-3.891787962187204242e-02,-2.201312577029335832e-02,-1.028253659255804198e-01,-2.912095776691844828e-02,1.123831841848508921e-02,5.696672887570059657e-02,-1.115089745465032006e-01,-7.381901225770544361e-03,1.612884529491272756e-01,1.948390147182070282e-03,-5.721486920794975617e-02,-2.572472252495816916e-02,-3.765004168886461854e-03,1.493977763517882196e-01,3.321271723054836783e-02,-7.305452540448902077e-02,-7.308260167055384560e-02
-1.179475788470959498e-02,-7.855253564688436177e-04,3.643540615178192041e-03,-1.353875174743048304e-01,3.353998005725773029e-02,-1.965825843425368646e-02,1.119579969822702276e-01,-3.336008678596247973e-02,-2.906949914331221838e-02,-2.119993294742587679e-03,-1.078817733842844379e-01,-1.051798162201443704e-01,-5.384764829116134473e-03,-2.753790153295020138e-02,-1.111876230142501421e-02,1.794803089147969585e-02,-8.884875687920440468e-02,-1.548220013940321098e-02,-3.399242653832084543e-02,4.561369217625228789e-02
-1.534199104365576924e-02,8.691102328365263308e-02,-7.034328126433543604e-02,1.334515815313207787e-01,-6.103738682681764116e-02,1.089512709212426128e-01,-5.301289655774276549e-02,1.077674993570548884e-01,-6.835666736710922786e-02,-5.451510187768259658e-02,5.503938557021570248e-03,-9.522914088774166175e-02,-5.064755701930915427e-02,3.297018501730864665e-02,-2.524882634008523280e-02,-2.076311061937571034e-01,3.639903785103460604e-02,7.168776907176003556e-03,3.156254183435166366e-02,-2.413554569210412878e-02
5.118329848073643884e-02,9.062850759287452429e-02,3.003449157773086658e-02,-5.228614282587757539e-02,-2.884207317221912110e-03,-2.419249684290520827e-02,1.237304452307989855e-01,-6.227229737007952681e-02,-7.802544247165771481e-05,-3.829144845467963298e-02,1.484197569414331119e-01,-9.299801685625530556e-02,-4.804523747231218000e-02,6.117097698914038262e-02,2.276219069379067372e-01,8.673867696919135284e-02,-8.973222266416142068e-02,6.063179749721108597e-02,-4.768712677181759230e-02,-1.353349713042086878e-02
-1.047484953925236495e-01,-1.299410658257368623e-01,-5.126477092101280886e-02,1.567871638442520088e-01,6.027807930180678619e-02,-1.334804227905341534e-01,-6.208062689862566680e-02,1.125165149553830346e-01,5.592950181319214509e-02,-4.790018642434559770e-02,-3.660721903763558549e-02,2.164311670580492189e-02,-8.697631604856904952e-02,1.091881183186517168e-01,1.466183322357755281e-01,-2.553832833343419942e-02,6.158695741665629747e-02,-8.229941767671282438e-02,2.211453515042394180e-02,-5.368560923107693061e-02
-1.131188523662103179e-01,2.235176126363614887e-02,6.436628204910923093e-03,6.076457699080940744e-02,7.233548780708450032e-02,3.470846550866051039e-02,-4.657854706405299174e-03,-2.735959243967420879e-02,-3.510617150460738911e-02,9.537827937925096033e-02,-6.292766397727490857e-02,-3.308454807377388812e-02,-1.292247829755741872e-01,8.364342128912787000e-02,6.178627636815720026e-02,7.042360877853459308e-03,1.748868221979239801e-02,3.716364754065598804e-04,5.835263177445150495e-02,-1.100952310147627899e-01
-6.139304014719241392e-03,-9.872405245961250742e-02,1.045637393518227126e-01,4.172568478940661546e-02,-7.138994129671052957e-02,-6.394337827299484411e-02,-5.725262320501379315e-02,2.391640186897577708e-02,3.961984208518057327e-02,-5.709449341788885857e-02,2.745261476159335454e-02,7.273128422498394141e-02,-2.515568286729461325e-02,2.452357057752107064e-02,6.194752252062323689e-02,-6.200548545353275209e-02,-1.651284919429517328e-02,4.608926119365526486e-02,-5.314893503310257061e-02,4.886914883627850592e-02
8.172056694203332083e-02,-4.764416054690816249e-02,-1.400586268706230202e-02,1.888188873392662170e-01,-5.253244806278019319e-02,-2.213039143842363832e-01,9.249058677872551426e-02,-1.678509489165077584e-01,2.898613182882356365e-01,5.461742929817014732e-04,-1.647683492180185630e-02,-2.326531582469484605e-01,7.066932390027383382e-02,-5.009200099587524796e-02,3.606642225810108987e-02,-1.763983376664944314e-01,-9.148146070350031411e-02,2.771698884338461358e-02,3.367254915165520529e-02,-9.619668061013213201e-02
2.713264233936624539e-02,-1.308759071859497830e-02,2.786211776707208168e-02,1.470349928170648635e-01,8.465906311009699370e-02,-4.288951204904472431e-02,2.082346788500708673e-02,-2.665487269285615746e-01,-3.628514063060950777e-03,5.318279584724506376e-02,-4.765375341391691472e-02,-5.156841071734056259e-01,9.156703044019336157e-02,4.189301864996811814e-02,8.974132140649206113e-02,-1.506323739008047224e-01,1.565120487703350882e-01,3.133187588433466314e-02,1.845333987247493313e-01,6.460676679077290152e-02
-2.663012051882732711e-01,9.617765722042868545e-03,2.486337666355926124e-01,1.644072064124624255e-01,9.664663573385420814e-02,-1.252157760478738169e-01,2.510069881118254242e-02,-2.955190242825687097e-01,2.002000265875596707e-01,3.729573872929336370e-02,1.281712435166366126e-01,-6.486037001318442075e-01,-2.279380009559917736e-02,5.565788639501544760e-02,3.482538475205648743e-01,-1.900239406614638027e-01,1.520973206745986628e-01,1.185268274255951576e-01,1.070208613251686924e-01,-1.458382528707433956e-01
-3.370629175126110821e-01,4.625251014148412665e-02,1.797404254453886796e-01,-3.230241740525803540e-02,-9.983767371007092051e-02,-1.615859274758911779e-01,-1.295110847305211144e-01,1.051136877875410575e-01,1.688598341977250450e-01,-2.231344165823635484e-01,1.215504205568103818e-01,-6.989542452623663804e-01,4.479069539551502194e-02,-4.948632855928018770e-02,3.264061989830116528e-01,-1.951461124545647019e-01,2.154237078497930613e-01,2.459893785040886405e-01,1.478419711137374248e-01,-1.097933186212342316e-02
-2.947818775722886864e-01,3.109618563745260578e-01,2.110790678213317617e-01,1.132206414229625438e-02,-1.178809497455303446e-01,-4.326753185625925036e-01,7.041472912990207056e-02,1.693268213103468756e-01,3.704694347681743993e-01,-2.287902623474111219e-01,1.286412634933341015e-01,-8.276727717270653262e-01,-3.108946055158786498e-02,2.312875357727755057e-02,4.952811570976595745e-01,-6.624182224500478888e-01,-2.588579052864542138e-02,3.211497040974954920e-01,2.680160637809584356e-01,-1.338339150526192123e-01
-4.103011799120043213e-01,2.933663850882748947e-01,1.582074660564892210e-01,2.027898900972940552e-03,7.874230788592735675e-02,-4.569073361685239698e-01,4.873361044591111718e-03,6.194078546780766581e-02,4.152072627131529470e-01,-2.845977804355510066e-01,2.001014741252948870e-01,-7.085008629023662463e-01,1.462400432987992771e-01,-1.101024035429522818e-01,8.424991540180257754e-01,-4.822211487937902996e-01,9.882496257202871837e-02,2.218192420308932045e-01,3.127905963419044255e-01,-2.907089962583639386e-01
-3.346001529718293233e-01,1.584249570039440724e-01,1.899056698254682485e-01,2.857115482827206621e-01,1.093065191480701442e-01,-1.201907105329051151e-01,-1.235430353138878695e-01,-2.025420173432763427e-01,2.490189527800581171e-01,-3.729438874313558139e-01,3.086138488884585529e-01,-4.902085553294864839e-01,-7.854245322405429761e-03,2.848174911771268487e-03,6.314896225632784521e-01,-4.970418340940221946e-01,-5.265445063364627282e-02,3.761881860667976585e-01,2.680243507776590151e-01,-1.359707433220359862e-01
-1.314091194314901956e-01,2.199774292390342390e-01,2.690727855162541315e-01,3.415393565935735953e-01,1.081449816072671960e-01,-2.268119534881460619e-01,-1.457063674087708260e-01,-2.050246920365538794e-01,4.467802996976157764e-03,-4.878952073906283604e-01,3.831436702820373297e-01,-4.730645128460966853e-01,7.666662795007693487e-02,1.370397554876995327e-01,5.462689317811691980e-01,-2.048708593256539090e-01,7.342668466692743590e-02,2.977446054900307337e-01,3.354885328716181725e-01,-1.977646302472265416e-01
-8.592223459469426226e-04,2.321667588993694686e-01,4.783096804459263662e-03,2.862618326345888961e-02,-1.534254199050442101e-02,-9.766955407049819626e-02,-1.161673374755162885e-01,5.013663788491920861e-03,3.445206813665770418e-01,-1.467938965017305253e-01,4.380011404105524364e-01,-3.738614963724898321e-01,9.746192470940856500e-02,1.507982427633302869e-01,1.500487446005995852e-02,4.695394183720911357e-02,6.412688980696709673e-02,1.964954802968279790e-01,5.358663226732703899e-01,-2.767398781346798106e-02
-7.972570013854173021e-02,1.044396852352035970e-01,2.031785816925374133e-01,-1.096355279427198293e-01,3.595589612601436669e-02,-2.881805619683301331e-02,-1.745765271876639213e-01,9.768357845881777898e-03,1.033390003875852836e-01,6.103152308840081169e-02,3.638419112013017986e-02,-3.508300574932318727e-01,2.119738053962012259e-01,6.834783518477045849e-02,1.610788692276319822e-01,-7.786311435205141296e-02,-8.284762889890116833e-02,1.752402537658095394e-01,5.399211419366219955e-01,4.257057161450932686e-02
-1.283085276971530075e-01,7.782063922094765995e-02,2.302192758408679318e-01,1.506501932757532691e-02,1.469250250228651064e-02,3.418119448424191548e-02,4.718883658448755347e-02,3.799816640050059785e-02,-5.222657635280533728e-02,-2.207397787985429516e-01,1.184682995629078583e-01,2.740684541378355168e-02,1.100382801484060813e-01,-1.188507149318666217e-02,1.907215705895297653e-01,-3.378278653473487103e-01,-3.785164945635116629e-02,1.767936634865884815e-01,4.060398719756893038e-01,-1.582263015798674455e-01
-4.151250403330312283e-02,1.616781757699943811e-01,-2.016187435733916011e-01,5.881243631264369137e-02,-4.844791647650807664e-02,8.837918151753294815e-02,-1.725169971253756596e-01,-8.649678132323498914e-02,2.778150025068902313e-03,-2.652144487923117633e-01,4.160805648374415328e-02,1.903113519679420773e-01,1.408588167110773615e-01,1.649327183635160843e-01,-4.607933794780425668e-02,-2.406754307438797036e-01,-5.384797369975154874e-02,1.453354546551398063e-01,1.274043893011704287e-01,-7.158282496662342342e-02
-8.266368100808862973e-02,-1.782041448121440483e-02,9.811017998400918538e-02,-7.804244768097060025e-02,3.145385268038027038e-02,2.804296898775187480e-02,-1.252160865384129018e-01,-9.420200568919076534e-02,-1.720661912729179177e-01,-1.865746189876262562e-01,1.528675101339589115e-01,1.237351005831901357e-01,1.136815689636173354e-01,2.727110344823561669e-02,1.949752479680638972e-01,-2.254507325936760398e-01,1.394323206876315058e-01,3.137776436730831814e-02,1.291242915554003390e-01,2.385774913689579085e-02
-1.024580186228227635e-01,5.298255552954838493e-02,1.889947623708098379e-01,-2.730127571150957333e-02,-1.445126775891771714e-02,-1.398348494137816728e-02,-1.414462729944321873e-01,-5.439127319210009665e-02,2.442883351342219501e-03,-3.099138671496939890e-01,2.154262848020269960e-01,-9.603429123106038690e-02,-1.091196183937995640e-01,6.191310706184097873e-02,1.286562853667627959e-01,-1.556288446663947889e-01,-1.620127429048798251e-01,-9.170549869143096444e-02,1.232805054437667996e-01,1.073267683583632726e-01
-2.946476819860507131e-03,-8.997668065413405580e-02,-8.041571998421361001e-02,-8.211551229714933453e-02,2.353016144696276971e-02,-4.372247479962787509e-02,-1.028188370563454107e-01,8.914611363905269870e-03,5.975679284314110683e-03,-1.094628426270592286e-01,-5.556665073804877703e-02,3.823167983284446458e-02,-4.236276669502325731e-02,7.510303240608011410e-02,1.384598512005084936e-01,-5.632644192222415087e-03,-8.175904251666976652e-02,1.526569430580528575e-01,1.639294108533397576e-01,2.688520839243391941e-02
-1.336874898743242446e-01,4.051861459634513440e-02,9.260882641834880524e-02,-3.639138320491388384e-02,7.804898894578697621e-02,-1.566834359427566603e-01,-6.608334502778344562e-03,-5.874254119402566587e-02,8.131771485745409311e-02,-4.741570907085986691e-02,-1.672218673641094264e-02,2.776862675840312614e-02,2.541968930618174194e-02,2.344674203053289177e-02,1.258361369559844734e-01,-5.615483314377317514e-02,-8.183330751647369117e-02,1.892401528050787277e-02,9.326503366473495871e-02,-1.312248345570872776e-01
-2.322572623031712857e-02,-2.455347095252207942e-02,-3.424454709692859727e-02,-1.185002269608864851e-02,-2.649269846521262045e-02,-3.109057465802466530e-02,-5.559477309804440603e-02,-6.569177641126222600e-02,7.378241792277184796e-02,5.232216768143540565e-03,5.277547275959881129e-02,-9.442069698617085172e-02,-1.127728888963840277e-02,8.855359851229244184e-02,-6.567825613595765222e-02,5.919650837023431728e-02,4.354866253052357139e-02,3.166648389963136467e-02,4.485943136920743368e-02,-6.152023732439809017e-02
7.350817140987291227e-03,6.868838903892938996e-02,1.264798806358282887e-02,2.423201951131860599e-02,-2.412026226931371711e-02,-8.460095385492447106e-02,-6.495833478159522556e-02,-1.292646881280352378e-01,3.259508664519667615e-02,1.785558735110863715e-01,8.434974740525532852e-03,3.418319097831980929e-02,1.472886652250066791e-02,-1.494530464026887495e-01,1.393914322165936970e-01,-7.693943867037404682e-02,-3.184335334623551034e-02,4.112659752457740320e-02,8.164950081921824865e-02,8.832943667228811135e-02
3.801503301559088638e-02,-5.232469942207335079e-02,8.506071096165883361e-02,5.123756457827760569e-02,6.913127219233305802e-03,-1.215621547571097381e-02,-2.705057603286061332e-02,3.504294902866304795e-02,-5.447075439658016771e-02,-8.222474798969095500e-02,1.568868579948024672e-02,6.640536827106031936e-03,-8.642242263184687912e-02,2.541347585939108394e-02,-9.045423056437504328e-02,3.647824427903457317e-02,-3.928273734023224502e-03,5.046236948893783464e-02,-1.317944961367131622e-02,1.361182755277663345e-02
3.058998268180940575e-02,5.907207102927696657e-02,3.725374135730363107e-02,6.539580640215858498e-02,9.895804187270046057e-03,-1.460550995900219626e-02,9.952718340001106417e-03,1.037497492791919634e-01,1.376788798385805701e-01,-4.842193742242465598e-02,8.228069715901585590e-02,-3.250924058215582529e-02,-9.156986602758769968e-04,-7.514698281751731879e-02,4.787695783874663241e-02,1.090621342271747138e-03,-1.078632218925766606e-02,-1.052763749800750964e-01,4.108439978492080952e-02,-7.081336481949493909e-03
-6.696661813498948346e-02,-2.247861832183135553e-02,4.960560925685882777e-02,-1.002970368765201126e-01,-3.133050814541256390e-02,-1.923342550458836606e-02,-4.158511230019851929e-02,1.327765554103876519e-02,9.533500084631330029e-02,4.854080354763583988e-02,-1.245399646360044882e-01,-6.466005108350984798e-02,1.417563209160211946e-01,-1.079358235225069164e-02,-5.624164165948077054e-02,-3.117803449136230965e-03,2.107450087550980997e-02,1.006882228466751544e-01,-5.710972639572303028e-02,-7.868102556125311509e-02
-7.517581250024486794e-02,5.840227080584718677e-02,3.254816188537724975e-02,-1.533964255567882295e-02,1.160167774266523122e-01,2.277295002880568020e-01,6.927395105350482932e-03,4.287885332061825566e-02,1.201254857014707050e-01,5.518024680028191589e-03,-4.145349288664060099e-03,-6.252164757762683489e-02,-3.444261937858530270e-02,3.311336236385772208e-02,1.094949315884988089e-01,8.853004424379595783e-02,-2.342627202585733162e-02,3.201320215632216803e-02,7.657616548521026245e-02,3.864581706349234924e-02
-1.313460462960818198e-01,-5.277755396681624994e-02,-4.457125537402614052e-02,-1.077753121972766098e-01,2.332104443521294812e-02,-5.454252396995291907e-02,-1.244545612843124885e-02,-1.382291415435030896e-02,-6.751370715849433490e-02,-1.663908232286506472e-01,5.259180817238302136e-02,-1.268704210024393722e-02,-3.653585332370815758e-02,4.923929673056543638e-02,-6.796674681065428825e-02,5.532324053294995075e-02,6.224246149020506297e-02,9.588315399036746733e-02,-9.175826766215607055e-02,-9.993941208565437773e-02
1.025952054555397813e-01,-9.855465537394818287e-02,5.543843973164516020e-02,1.591225320788399594e-02,-1.331885532767487779e-01,8.003546203041495347e-03,1.684123068484251820e-02,6.845669321552598496e-02,-3.630039469342218744e-02,-2.255705488738589393e-02,2.141664856636352199e-02,-4.015403824997127585e-02,9.880826587866436972e-02,6.355282264282828553e-02,8.655880328557648273e-02,-1.347391696925755999e-01,-4.348035204468041551e-03,1.121916282245286750e-01,-1.614405921020631296e-02,-4.031851193870550354e-02
9.283578764513218673e-02,2.123979595178745322e-02,-2.756054502948521341e-04,-1.118107613418859586e-02,-1.193440475422274244e-01,-2.839967309228559611e-02,-2.605383298937324552e-02,-5.036732204125168866e-02,-1.353674486685401135e-01,-3.813501428437261059e-02,-4.943855150414524363e-02,9.332297921217092007e-02,1.178334671489320029e-01,1.618943964120043641e-02,4.305130716209314146e-02,1.437113006825183337e-01,3.636955274331114818e-02,1.801177516057575305e-03,-5.201206710101108355e-02,4.654868235513486691e-02
-7.633067769290591276e-02,-6.842253867475234230e-02,1.797421401066483237e-02,-8.321621311421924239e-02,1.336646236264157211e-02,-6.468339508662303283e-02,9.484065929696805508e-02,2.595695105785295748e-02,-1.740449340299767556e-01,-3.869643115655579252e-02,-4.280393682387371307e-02,-2.019921450925014905e-01,-6.089967410162388378e-02,1.298294666684494114e-01,3.139678131752762780e-02,1.451852155548762069e-01,8.575209854975186785e-02,5.137726471208135109e-02,1.241647684769824761e-01,1.736441223991406352e-02
2.005342213785082928e-01,5.069497933132951183e-03,-3.162580112124201426e-01,7.417642804194965467e-02,8.516906429351175922e-02,-6.171630287685724026e-02,-1.482951999182903213e-01,-1.793222976288356696e-01,5.355473452944117026e-04,-2.392742330190462605e-02,-7.277022587488128635e-02,-2.727956794246743644e-01,3.830362667225399587e-02,-3.587421859151787573e-02,5.101233428773533501e-02,7.311693198822549755e-02,-4.629308083619867314e-02,1.265092163704367723e-01,1.444385829029829482e-01,-3.444451409757656041e-02
-2.623156086669312659e-01,-1.138213934462333765e-01,-1.942490242419707136e-01,5.070028582526349067e-03,1.005225512528244297e-01,-4.603463064049099357e-02,-2.668279905470153680e-04,-9.464610737711598443e-02,-2.524018895916285438e-03,-1.797743361900492332e-01,1.368552776635582058e-01,-3.996771877044291155e-01,-1.091954856369976856e-01,-7.468523921284743461e-02,1.212842952297216864e-01,-1.282934841313584928e-01,2.250554962649136403e-01,9.452227699970430254e-04,1.905705669845698391e-01,4.422597537084802660e-02
-2.596560262499660321e-01,-7.483725051757313118e-02,-2.250623867160005676e-01,1.326269287356461046e-01,5.116541439341557723e-02,-3.109047878360647887e-01,-9.746142355276926628e-02,-2.151638817838989193e-01,1.081701327042329103e-01,-2.075621415154121907e-02,3.744969997709077236e-02,-4.784265814042917286e-01,-1.612600142738563891e-01,-2.230483639199380350e-02,-1.116414770492058471e-02,1.477734822763087097e-01,2.016373527228371709e-01,1.243891576944549868e-02,3.505802281246138130e-01,6.186756783429481904e-02
-3.661536272336844422e-01,-2.437767873460392198e-01,9.877270635607829016e-03,1.537765315213545370e-01,2.171736131231620792e-01,-5.688022495784840205e-01,3.430654978596607563e-02,-1.398987775960097713e-01,-1.410057265629034440e-01,1.267066269735632744e-01,3.063299627217611620e-01,-6.543165304542957195e-01,-2.252504294453090972e-01,3.463535258186204585e-02,-1.950129891344594413e-02,-5.197986767660816437e-02,3.101038241738073853e-01,8.240285754195005030e-02,3.541753768373640532e-01,-3.483781389145183816e-02
-5.380574063846979005e-01,-1.471452816040542955e-01,1.543064544997355680e-01,6.993854497178121632e-02,2.767448006314731646e-01,-5.995786644267234733e-01,-2.090639066570532806e-02,-2.594832874108733423e-01,5.013594467896065332e-02,1.085983260961128488e-01,7.210579477615776389e-02,-6.786360035645780941e-01,-3.236110563485648517e-01,-1.611341699639887853e-02,1.935423498221226779e-01,1.065343969739391064e-02,3.737238202050124913e-01,2.107567405577664699e-01,4.615373635598031821e-01,-1.638583802912995102e-01
-6.703913911402045178e-01,-1.236274363248596880e-01,5.323702237800219672e-01,9.836518349528108884e-02,1.436670229204012050e-01,-9.705988839932285783e-01,-1.956300239384619888e-01,-1.937937770340942001e-01,2.740788620185384272e-01,1.910069498930147824e-01,-4.651315746791376271e-01,-8.216997808376437229e-01,-7.546593777980544759e-01,-1.431699549932741455e-01,1.325005205693105814e-01,-2.049885771919364441e-01,1.910308311013250437e-01,1.100447470160800523e-01,6.054996050851302325e-01,-2.996244677478027141e-01
-6.924196020831711040e-01,4.612890786864932147e-01,7.065829244658260455e-01,3.617905185732796930e-02,1.159463125648446807e-01,-7.814297143983567340e-01,-3.225575064780660250e-01,-2.344585727018556054e-01,5.583131247245567419e-01,1.410642324073975162e-01,-5.394764607292926728e-01,-5.055199230651403752e-01,-6.607766971363550068e-01,-1.297697094754959035e-01,2.263035665263626317e-01,-2.426679845886059173e-01,2.328109728097194908e-01,-2.197067156284988540e-02,9.373986402195692014e-01,-4.621483088646053949e-01
-6.032067532335466664e-01,2.125638312647292472e-01,1.985025560784328402e-01,6.628771545958374034e-01,6.617549941878818620e-01,-5.498901000981079035e-01,-4.191020567023910348e-01,-7.490234955309018616e-01,4.163705311987641600e-01,5.171226739429082286e-01,-8.815997360769066427e-02,-9.577307976006784740e-01,-4.466622051605291244e-01,-6.945772025182948006e-01,-2.143218240813902775e-01,-4.064879319399810481e-02,-4.482094882515799857e-03,1.851810127890856361e-01,7.921364238515720135e-01,-5.016739302696120451e-01
-4.633509412976166697e-01,3.638042132101217963e-01,-2.674882838088380455e-01,8.175712825837215814e-01,4.338129063174290256e-01,-2.312316456313178170e-01,-5.472278655439902773e-01,-7.330738370043090590e-01,3.404471763812598750e-01,4.121061866706282606e-01,1.855925939652420392e-02,-7.091626255696347192e-01,-3.778743180460881201e-01,-6.289784988846547353e-01,-7.216396703711528415e-01,-4.226842590338262262e-01,1.045211255501964781e-01,4.326540847874904561e-01,7.216170458012503008e-01,-4.500291207072817934e-01
-4.283376188493193681e-01,3.772347180918189657e-01,-2.109807625709803069e-01,5.425858485685717270e-01,3.917585608719519330e-01,-2.410466607565399100e-01,-4.051973216426976165e-01,-3.195931537359662511e-01,1.290236144990796197e-01,1.346022206544750244e-01,5.100989783854872339e-01,-8.102575998400040058e-01,-1.643929063549385006e-01,-2.848427393209511105e-01,-2.254280406852725016e-01,-8.837701712656792497e-01,-6.161844021403584809e-02,6.637989041616011443e-01,6.026432327970839831e-01,-5.996203194334071007e-01
-2.377472712498314711e-01,9.111944457098920813e-02,4.324629948210554353e-01,-1.925251316791618331e-02,2.921287657396289261e-01,-1.407105890823546757e-01,-6.341098978749747372e-01,-4.312033399262846234e-01,3.888012427043114339e-01,5.941870398125254082e-01,4.921951370404491904e-02,-6.436272797227134967e-01,6.277934750377985040e-02,-2.389522982408719132e-01,2.572094930450878891e-01,-6.969204972781693763e-02,-1.418507425635504304e-01,5.354396092558741937e-01,9.834063595010344994e-02,-4.486865090400836142e-01
1.795073941258391176e-02,-3.438131595041450661e-02,6.463593884622526042e-01,-2.406473463633395649e-01,4.273074324310250360e-01,-2.784840677262888642e-01,-4.673245113604482803e-01,-2.617896881114576413e-01,1.533430577580376930e-01,3.485063220251579663e-01,1.628494446168346488e-01,-6.464960376711001988e-01,-1.046011150969740067e-01,-6.965988188669325343e-02,4.842269709891833807e-01,-2.646653921354040762e-01,9.955619436866895711e-02,5.806280422389950013e-01,5.253720571247653126e-01,-4.179213657078356681e-01
-7.574329615567829133e-02,-7.300615501430610457e-03,1.699391650587353253e-01,-3.750000771041875902e-01,6.031307234577486520e-01,-6.175700938149879249e-02,-6.336737129150230574e-01,-6.638394328270570410e-01,-1.015365341647013128e-02,-3.155561645179867647e-02,2.238340819258985426e-01,-8.245178562597549332e-02,-5.120988460551867405e-02,-2.038379068588891674e-01,1.080105514921410187e-01,-4.056722751249999259e-01,4.739855310552404943e-01,5.746913721523254637e-01,4.511677703360706393e-01,-3.441575447481345362e-01
9.302875419172119964e-02,1.816902604339810656e-01,2.304392276480305701e-01,-1.408480519925120467e-01,4.812543883788200083e-01,-2.312228232772122957e-02,-5.606274138216673641e-01,-4.435437574437126051e-01,3.148007437170650263e-02,-3.814269723978874760e-01,1.025995634692131175e-01,-7.122644378198514370e-02,-4.012306387064054625e-02,-1.623525032806850676e-01,2.723110626892452646e-01,-1.162334144490979604e+00,1.999793418920464971e-01,5.016718015902927874e-01,8.709435789881730949e-01,-1.511535598999784180e-01
1.361216064039145190e-01,2.523134384493093130e-01,4.541245531397740121e-01,4.998522650431985737e-02,3.693252877994298577e-01,5.433609716682966800e-02,-3.694294254645786868e-01,-1.624989282526061174e-01,-3.151566856879030321e-02,-4.571121365996173025e-01,3.573741166825377125e-01,-2.567974795890315964e-01,5.331466444620071993e-02,8.712150036952642784e-02,7.491933338788153707e-01,-9.450395629013738086e-01,-1.505498131887618718e-01,2.809719007971397953e-01,7.545134578891735666e-01,-2.121548910860779069e-01
-2.515877014005474255e-02,3.285206767085747659e-01,2.619730093343252686e-01,-7.922965990377604795e-02,-4.675453330171750604e-03,2.667033359707679518e-01,-1.916239465725973756e-01,1.182757370012702813e-01,-5.519458274892975747e-02,-4.855272021232834301e-01,4.029913111258890401e-01,-2.379409354041499003e-01,3.475954773570608114e-01,5.304035308088994594e-01,5.174519985441556891e-01,-2.105976685931481018e-01,-2.551863965071882179e-02,2.696308456557138244e-01,1.032415935155695852e+00,-1.741153903612485676e-01
-2.500758733123358279e-01,1.147229635129109748e-01,2.413279327627597115e-01,-9.781176622696106937e-02,1.334193600553060521e-01,-1.055273866507080854e-01,-3.086642998131508553e-01,-2.039308051667604316e-01,-6.006576446977068828e-02,-5.812521404299682004e-01,4.703267293359640333e-01,1.711854609616772493e-02,1.991425789531990065e-01,4.647246705922521842e-02,3.564305347098407073e-01,-1.915411930863837875e-01,-9.643415457152527959e-02,-7.459709229818748365e-03,7.704389112128641193e-01,-1.466032539246747701e-01
1.440465350479522288e-01,8.329636752233260388e-02,3.720753790312534837e-01,-1.085425457373531827e-01,2.259595870674632467e-01,-2.618963936045416996e-01,-1.552108906659172838e-01,-4.581494819299985477e-01,-1.393790738469013191e-01,-3.775383593741367116e-01,1.878385368877159289e-01,-1.502523665086841209e-01,7.592823761672841398e-02,-1.534778011341640935e-01,5.402279936452772935e-01,-3.972145903573896519e-01,1.769541619288189926e-01,7.556787665166600498e-02,7.072427060600033899e-01,-1.576816456855269222e-01
1.462524427035948871e-01,-8.583824462599597832e-03,1.030539037751730946e-01,3.524918280860717124e-02,1.640667358019520447e-02,2.124810542861798116e-02,5.620195402172279558e-02,-3.012308755492852930e-01,5.384069388694867966e-03,-1.591029193665092697e-02,8.606944010452170779e-02,-2.266822123076815410e-01,8.493000789213884030e-03,-8.300144077753190963e-02,3.510209224553239582e-01,-1.052064208969469145e-01,1.401733402484864055e-01,-5.434000781408564185e-02,3.136783521916000628e-01,-2.666568925629288905e-02
-1.073654634863371732e-01,4.911149512929023110e-03,-2.056994255303948999e-02,-8.421360323000497139e-02,4.735298748528422863e-02,-4.425812073532573582e-02,4.863465057595262042e-02,1.157767423380475086e-01,1.378904228983870300e-02,9.587450157603277789e-02,-2.139461858810181305e-01,6.754747162669348659e-02,1.435336968570571359e-01,-8.840163054199938475e-02,1.846071230285562248e-01,-2.324952247007730510e-02,3.764168495941981607e-02,3.490561226448594262e-02,1.128228744672460510e-01,5.110938913304237385e-02
-1.000652864818023374e-01,3.919667966461749808e-02,4.606220853910932694e-02,-2.101434639802801652e-02,5.203641997180716641e-03,3.276053491489024083e-02,7.280800590262964667e-02,5.871730318498389473e-02,-4.056473988377326534e-02,6.223783496791600311e-02,-1.743360592589463243e-01,-1.114079099450287491e-01,3.398715690277686967e-04,-8.053261326895111427e-02,1.874215415571224910e-02,4.315361101832124180e-02,1.236198003423787384e-01,-1.375829614208889766e-03,-5.091580268085387634e-02,7.815437899326996285e-02
-7.197747540776652797e-02,-2.669317014912481190e-02,1.202318676746914755e-01,9.171940955819550545e-02,-1.641765026253035054e-02,5.043568492735123199e-02,2.614372700167113053e-02,5.571539967985361663e-02,1.826654992872853156e-01,-3.320333782003594136e-02,7.023395859076733694e-02,-1.728942276879353668e-03,1.554254054401320029e-01,1.467128457117756746e-01,3.954001482004732698e-02,1.712129366169999611e-01,-3.451205626126975512e-02,-1.101688655700758107e-01,6.459273030449663722e-02,5.881360906032922359e-02
3.888669703387200721e-02,8.749734149198248878e-02,-1.246318490580431738e-02,-8.821845295124108866e-02,1.007626210864551695e-02,7.693039763678570508e-02,-1.120052039076793460e-01,7.986355245954414317e-02,-7.124318348540048529e-02,9.995896296161428662e-02,-5.549892077320008749e-02,4.906487706562152884e-02,-1.180440259815785237e-01,1.113308293003821003e-01,5.482512156131553321e-02,-1.699078416480338805e-02,6.530128039284781305e-02,-1.045857840354731498e-02,-5.984072415576835446e-02,-1.349736558404383314e-02
4.234259761815641065e-02,1.349160153061860212e-01,-1.123337570475871003e-02,9.370740104112677479e-03,-5.895489254742944385e-02,5.672052228527680456e-02,-1.420276378805069573e-01,4.693734199471685103e-02,5.118357617855323616e-02,-4.720811439266012557e-03,-2.763767796901264728e-02,-5.319717181819337559e-02,-5.304692811732432747e-03,7.984228972336079866e-02,9.282145004815699207e-02,7.250359770100213430e-02,1.711979391133506070e-02,2.758444149204581503e-02,3.573875884203338293e-02,-2.956364461193087753e-02
-8.848968851540982283e-02,-7.500515024239624851e-02,-6.557459944344684599e-02,-1.486992902644358565e-02,4.321405424913773302e-02,-6.151694053101445375e-02,-3.941598090530150367e-03,5.249429706582448008e-02,-8.959399364945186406e-02,-1.051961485395440793e-01,8.956947280152972868e-02,4.574521038394292749e-02,-6.067062022267590005e-02,-2.721717563540123827e-02,3.235872293656286147e-02,8.346779979247297143e-02,1.719173661758955501e-02,1.466107384444904904e-01,3.998888692766933844e-02,-9.611857645466846678e-02
-3.401418602345840370e-02,-4.231065438862909728e-02,-3.765861952332883594e-02,1.802207931963635545e-02,-2.160153594846201536e-02,-5.583288358623979958e-02,2.323216040132247695e-02,3.218982303834573566e-02,1.122280268001329918e-03,5.210162825109442009e-02,1.007241722154581937e-01,-3.600471534337640334e-02,-5.248939173702819871e-02,5.494678782618959284e-02,-1.112744895269273948e-01,-4.646288727466994783e-02,-1.405839584299100470e-02,-5.034660807663737109e-02,6.568514430817456486e-03,6.719456686570433879e-02
3.986830540568785802e-02,-1.268796678189104410e-01,5.329345490174439148e-02,-1.693873956314706219e-01,7.365929121048593597e-02,-1.380372426014609688e-01,-2.323638500221777287e-02,1.072904792056212364e-01,-1.401931942171206757e-01,-3.348836277935579586e-02,-5.344959258710083733e-02,9.070603268493951377e-02,-5.950450598676521041e-02,5.943360792539078424e-02,-2.328095419563506741e-01,1.117707391703654518e-01,6.473961741201916809e-02,1.011654876355905647e-01,4.035178545945345557e-02,4.574714485731451279e-03
-8.578589277459895690e-02,1.006200013869610749e-01,-4.888188096509146069e-02,-7.097238863745500281e-02,3.948249215453947898e-04,-1.770136553589808093e-01,-2.576114228762814151e-01,-2.431740166095471695e-02,-1.652669293658413918e-01,-2.324977253920344766e-02,-2.790388243418632022e-02,-1.108211498020355013e-01,-2.459299336724156404e-01,-8.912738267485946497e-02,-7.326192162794649410e-02,-1.561237948648630247e-01,8.394406115307379013e-02,-4.307425167797269971e-02,2.074655292439806994e-02,-5.767187838886799617e-02
-4.000093627645034955e-02,-1.985916001626815419e-02,-5.540736361345034028e-02,6.589325372237474221e-02,9.678292069227978356e-02,-1.112735274409284575e-01,-1.017295196473012725e-01,-2.015929348168640431e-02,-1.280215628546897688e-01,1.460597878202878341e-01,2.648091699439084762e-02,-5.863643295208413597e-02,-5.005566852589091731e-01,3.083346309404791374e-02,-1.958502976119601280e-01,-1.146907624555863481e-01,2.584650308031919974e-01,8.314373184682963269e-03,1.159550317302319583e-01,5.991118385214542694e-03
-9.012067894411057711e-02,1.095550238229139051e-01,-6.325620911554553916e-02,1.118092064041162070e-01,5.252439598876653543e-02,-2.887026195152251340e-01,-5.571143282760770976e-01,-1.189846852689973450e-01,-1.099508755771763657e-01,-5.018049278860128859e-02,-1.018459806472420959e-01,-3.817607559716484911e-01,-4.557233084625614827e-01,4.091473263420874508e-03,-1.538840602850644057e-01,2.207652520774838669e-03,3.744666131437410922e-02,-8.117249549112391660e-02,4.621107080926230015e-01,1.096837929806311063e-01
-1.351404032623134965e-01,2.520034687731241840e-01,4.795122723820405830e-01,2.847452995012356713e-01,1.723296611175451631e-01,-3.034900114843407382e-01,-4.374042580671295699e-01,-7.758530582093089989e-02,-1.008467147607540991e-02,3.348810660523250937e-01,1.049052624859151128e-01,-7.687223254919403614e-02,-6.642798284091986361e-01,4.613017427498713324e-02,-5.293407691433242857e-01,2.417219168321607381e-01,1.288522634654268861e-01,-1.889773494114839747e-01,5.250661580730712208e-01,1.694063493988881564e-01
-4.441373390952615408e-01,2.595989416964663010e-01,2.343419693457551023e-01,1.970708864714671438e-01,2.794575781404751158e-01,-3.817917709954465333e-01,-2.058915088761891776e-01,-2.753502412459987170e-01,-1.915477752073528328e-01,7.232398742250578660e-01,3.122231019553484699e-01,-3.851247990088751960e-01,-8.708429493923980358e-01,1.830037125903566028e-02,-8.231323910168245606e-01,1.010622474036921847e-01,5.067690162860384318e-01,-2.397750394305318139e-03,4.122404720523877297e-01,1.560926623449361561e-01
-6.586449509979778183e-01,-5.017580848228887502e-01,-4.185795988165297854e-01,2.481182817079518044e-01,1.702137136859949162e-01,-5.253599362900006620e-01,-5.160405690385112543e-01,-3.550615312228150855e-01,6.575892942990294032e-02,5.897888145618938038e-01,6.333344206051796932e-02,-2.019004164384213540e-01,-1.058220872504753274e+00,-1.503422631130392484e-01,-1.143435256348498852e+00,-1.964646877645596368e-01,4.682526382587435254e-01,-5.548107194343968734e-02,7.181035327420820513e-01,-1.625974996095715455e-02
-5.896452907217074602e-01,-3.024834572334565985e-01,-3.318664927309895041e-01,2.114266605668952970e-01,2.952459952095540796e-01,-5.378548454683949043e-01,-3.905261297819275779e-01,-1.278047512695884569e-01,4.360066449647317377e-01,7.746362657878573810e-01,-4.733279717201799297e-01,-2.600750380520800431e-01,-8.903014007599364676e-01,-2.513022072350952762e-01,-8.572184772058724089e-01,3.758884084545534576e-01,2.742994986249400538e-02,-2.775737051703989766e-01,8.441124150660815895e-01,1.153820159439244847e-01
-7.254057430225501202e-01,-1.262180802269916302e-01,-5.183342718187172737e-02,-5.630817923394770830e-01,4.387418307240798510e-01,-1.308286150830871297e-01,-2.635890491670808133e-01,-2.299033613407683654e-02,7.033571138399976608e-01,6.934494309639717136e-01,-3.317156265799922621e-01,-9.689463107052058433e-02,-1.318068488213734568e+00,-2.899750324665872903e-01,-6.951522112936620035e-02,5.748043558624049698e-01,5.361331447160441743e-02,-4.685726892651629893e-01,1.315265434144990142e-01,-5.132201860824469469e-02
-6.375833634535080785e-01,-1.732336028200754385e-01,-3.399881062895240280e-01,-9.885586582378448617e-02,4.631437755176543991e-01,-2.087944130771828832e-01,-1.885082642477876047e-01,-5.625907866232502386e-01,6.131080088832243646e-01,5.313206298508721392e-01,-4.318232303522595017e-01,-8.118013170617911778e-02,-9.614455176741919518e-01,-7.393884392710555753e-01,-9.472325450460271634e-01,-1.702060421644504551e-01,9.576992143125645507e-02,-7.060633492857594506e-02,-3.445325344039298909e-01,2.775263033175345284e-01
-9.804687460643798369e-01,3.376446978212968575e-01,-9.633632132128705505e-01,-1.950084004338540067e-01,1.540488740852549721e-01,-8.711890765550017734e-01,1.212040795324213216e-01,-5.884842296159729091e-01,4.313828315306974526e-01,1.969051300836671958e-01,2.259256109442880911e-01,3.950300259189076790e-01,8.213802829881838852e-02,-6.596425061570997395e-01,-5.163409823408209309e-01,-2.857748313949551311e-01,3.617249741871413904e-01,3.378784796881954822e-02,3.033412370196926222e-01,-2.584810400988297174e-01
-9.863757732726958771e-01,2.591672402077837556e-01,-5.980777177099527719e-01,-3.745466160657863475e-02,-4.281614626892806252e-01,-2.657513568923949299e-01,2.853364647078693861e-01,3.796281246966677625e-02,3.572459999207219239e-01,-3.307104150040012652e-02,-1.140458099544326559e-01,-7.115980607284211334e-02,3.640416695978804795e-01,-5.079363742135886151e-01,-4.935850891224543013e-01,-4.515519508690823969e-01,3.013133005684877630e-01,8.642486285824395320e-02,4.386174517920715665e-01,-4.180047993984092880e-01
-8.639159229275654717e-01,2.911907123188994806e-01,3.173595077646419460e-01,2.110890146136830126e-01,-1.660016933368514969e-01,2.991512021155989243e-01,1.142634673732008666e-01,-1.881869287577997707e-01,3.297643688141062013e-01,-2.107676192576149465e-02,3.444057840083042943e-01,6.890103044924819065e-01,2.451587462840174592e-01,-2.891359730987006493e-01,-1.879845556734799084e-01,-5.543501236054886733e-02,3.834549173513840392e-01,-4.849365370825387336e-03,1.403568315995057936e-01,-7.545181723629558190e-01
-6.065899236243523784e-01,2.181673305608181346e-01,3.441051325084379386e-01,1.577416592251620342e-01,2.023404452095285966e-01,1.055464277944689749e-01,-1.075555401881762990e-01,-1.457785018565261881e-01,1.439214994560739092e-01,3.755467905414846541e-01,-2.510152467862645786e-01,1.071356240086095701e-01,2.979021028598545784e-01,-1.941657659924476420e-01,-4.221255966409295096e-02,-1.274817972108828190e-01,-3.540304671586078644e-01,6.617062679948660930e-01,3.576773173002119055e-01,-8.819504058424922910e-01
-2.682475408909132941e-01,2.935487584190955013e-01,-5.859937722933165200e-02,-2.355692288855926186e-01,3.078008123249638683e-01,-2.233996271006306600e-01,-3.364870183896459532e-02,4.683942089101264528e-01,3.802500566334676702e-01,2.477399656778586368e-01,-1.308235956589530069e+00,4.709357750713181745e-01,-1.464918164772336384e-01,3.503136061012879776e-01,9.319376727097714030e-02,-5.897140154799188627e-01,1.374263373859447579e-01,5.408411353432608371e-01,6.891984448344475878e-01,-5.420930440566619213e-01
3.757748749121863630e-01,1.738116411163284913e-01,1.328689668761731946e-01,-2.935774742275395477e-01,-7.736420060734203186e-02,1.241498165412757981e-01,-7.732610489031625789e-02,3.242536758946153452e-01,2.380815936135237121e-01,-1.823941152043705161e-01,-5.736800391058661797e-01,-1.486226097117653369e-02,-1.474476254053817548e-01,3.116690963442869666e-01,2.475226852362454877e-01,-1.185853276324704497e+00,-1.454639308807344489e-01,5.662609190254787039e-01,9.792274749054950822e-02,-5.717570147681621390e-02
3.060063734143407821e-01,4.345675256908588246e-01,3.913055852051929295e-01,-3.098158624018046425e-01,-2.229183752575611688e-01,-2.052850981500328395e-02,-3.336363974263490406e-01,1.136202316882840326e-02,2.537674417668503088e-02,-4.260272102672649774e-01,3.058273385876024153e-01,-1.482518323326937892e-01,5.480228243357861129e-02,4.952200169968851151e-01,3.697594918683091980e-01,-3.838039014640343694e-01,-5.129140755612368041e-01,6.104909129739701790e-01,4.869740146510307399e-01,-1.573469199417047160e-01
2.159981577474972270e-01,4.946998335064514141e-01,2.521325759157956314e-01,-2.825927989046254085e-01,3.774510157833112917e-02,5.144806254561158365e-01,-1.606003489637766179e-01,-2.488852742883352065e-01,-1.568579202904646641e-01,-2.656147239384922254e-01,-6.001931466258993153e-02,-1.539096377600716326e-01,9.019315103027254477e-01,8.895532499313036912e-01,5.610191598456136797e-01,3.759881578449962292e-01,-7.718582186299547399e-01,5.988377486590166221e-01,6.776982973792743392e-01,2.624544396651335570e-02
1.400788541185511715e-01,3.799911990539151518e-01,-7.122374301181036427e-02,-2.219616997212787157e-01,3.126782967271506952e-01,3.605799617525628498e-01,-3.123216820529866045e-01,-4.808195032131461488e-01,1.503793263455750207e-01,-6.936369886088344927e-01,1.002455609835724987e-01,-3.389707025081142300e-01,8.871822443626328214e-01,2.493899418365752019e-01,4.942115521131649203e-01,-4.490259310911442342e-02,-4.902199612793449179e-01,6.679539973302641709e-01,6.831986785022764463e-01,5.136271713477318784e-02
1.362304001557244071e-01,3.283317112086013567e-02,-2.325426622274955057e-01,-2.071127994047894105e-01,3.577989006213811440e-01,-9.882287530933855924e-02,-2.495922393467207845e-01,-3.283838309086564156e-01,6.658869339056040781e-02,-4.662562197931854890e-01,-6.980890846330205235e-02,-2.793338330791757529e-01,6.641258700167357309e-01,2.011105142117807776e-01,5.399778842365857701e-01,-4.374363167072457120e-02,-1.218099721087477078e-01,7.448759764484845780e-01,5.121987013053675986e-01,1.120399658340846816e-01
1.042354964731451034e-01,-1.032208431697698436e-01,-3.292027499044814509e-01,-2.836666686921912039e-01,8.337938518744471283e-02,-2.864790313272360528e-02,-1.050986792956232901e-01,-2.521814998247163264e-01,1.588108969272756521e-01,-2.158458670185529615e-01,-2.756778730705374825e-01,-4.215929384309283906e-02,2.896942850173821193e-02,1.364222966111206248e-01,5.568682495024779300e-01,1.923606352702992781e-02,1.428024254366375145e-01,1.608790424643935790e-01,1.887457799698913641e-01,2.456886046715099914e-01
1.205800025256629632e-01,8.257137494402005951e-02,-1.992402469933213932e-02,-1.469483877686761086e-01,-6.768859170523124080e-02,-4.295738176710738737e-02,-4.556650708883375894e-02,-2.625811990632117079e-02,-7.218996346466431159e-03,-5.158356429108632707e-02,-9.531065408830889651e-02,-9.650123084269626728e-02,-8.921275302561940124e-02,-9.908367314582759711e-02,9.807944274292629272e-02,1.369304832401405797e-02,-4.739151391911226169e-02,1.866345513933969080e-01,2.161014197618705071e-02,4.732511392193820832e-02
1.634563061114769622e-01,-4.764318632034155593e-02,-8.564559271932510598e-02,-9.947066223268055674e-02,1.248163205681478843e-01,-5.624204854657094410e-02,6.712319054836710097e-02,8.196916992071352770e-02,-1.652351301818197685e-02,-1.378561834036331904e-03,-8.986115227878185840e-02,8.913009085960549305e-02,-8.311689051787990445e-02,6.672709325343555153e-02,-8.589565932500865114e-03,-9.660159876495907905e-02,9.587408651491384493e-02,-5.275540542526203219e-02,1.034109220445785515e-01,-1.160021029780303192e-01
5.908059122425899506e-02,-2.771919144192136128e-02,-7.461036272424081961e-02,-1.135536151638802116e-01,5.810059368091686355e-02,2.489623852832697007e-02,3.710295004428396798e-02,1.224651304053415296e-01,-6.528638930126513806e-02,-1.574321569778890789e-03,-7.213721786174151496e-02,4.865756606751093540e-03,-9.973003295874822982e-02,-9.052363755792962319e-02,3.926137396908013777e-02,-1.433040452649825269e-01,1.723683413449088042e-01,-3.023992250202033744e-02,6.030577894256162683e-03,3.018938738265672037e-02
-3.718003390385826636e-03,5.674019141733992883e-02,-7.517793041442913382e-02,-7.047317967943313166e-02,-6.343899013791633179e-02,-4.461195267779808141e-03,3.672524300040325845e-02,-4.642109496278371689e-02,-3.054146358116577656e-02,1.266871135532719912e-02,-3.203755555884561096e-02,-1.277021768067286740e-02,-3.115838044917312866e-02,1.960587911670247721e-02,4.709633285771435557e-02,3.572570232570372595e-02,-2.759791941246158425e-02,-5.979820846197387609e-03,-6.352259225251595531e-02,6.790388252639695255e-02
3.147386968201840857e-02,5.191687197649448408e-03,9.727228899101456050e-02,-4.652047874438519290e-03,-4.282320642056882537e-02,-1.453824219191365008e-01,-9.291634637229316540e-02,-6.915177247518695947e-02,7.625472114437893733e-04,1.235423297003819115e-01,-2.914646871259393007e-02,1.147750832131859966e-01,1.277149167282283851e-02,9.279736243577275945e-02,-7.731333480326953167e-02,1.312012936893573178e-01,-6.378474187830861231e-02,-4.633677945299654460e-02,4.284966322145675882e-02,1.566853974460233681e-02
1.303231505752470987e-02,-1.849903032493756564e-03,5.997899735724326192e-02,-1.111164749774659760e-01,-1.633831838353661317e-02,-6.444079895347627762e-02,3.589897715113785082e-02,-1.601451611984479884e-01,2.245417591308054156e-02,-2.422648910662517779e-02,-1.607382602031847546e-02,-7.687864344635518543e-02,6.788096174980005719e-03,4.672787911262336500e-04,4.309753601932123090e-02,-1.777798868171405131e-02,-4.515731092416665898e-02,8.455907822914210392e-02,5.284002034252621022e-02,4.319008120440243764e-03
-9.031812509628454194e-03,1.883618236444142835e-01,9.847650816986612543e-02,4.042173283611832230e-02,-2.316543288452455746e-02,-9.049347649677591532e-02,-5.551144361013819750e-02,6.857103628328046520e-03,-6.602120208635776921e-02,5.894937801351846779e-02,-1.395226440470637430e-01,-5.248681408121366743e-02,3.620343100137785736e-02,1.387364599954827304e-01,-1.503884157524346121e-01,2.500868576835103482e-02,7.781770761283929305e-02,-9.197091760630832225e-02,6.540541119024081973e-02,-6.781591570101674904e-02
-8.656492747789713837e-02,-5.628063979917703047e-02,1.479382266283370273e-01,-1.385587177807482140e-01,-3.653480005227234192e-03,-1.094590789981666062e-01,-1.190269794808267029e-01,-4.301133649696450845e-02,-1.196395316479502285e-01,1.797374470042609196e-01,-2.054619545198564309e-02,1.714258931712517309e-01,-1.693463325828562793e-01,9.794908093022603249e-03,-2.076515997018822668e-01,-1.492005975789858704e-02,-7.620907810219285095e-02,-5.262525827386146243e-02,7.432249878903490758e-02,-4.933384325258167481e-03
3.706158350167666482e-01,1.293908489395050043e-01,4.751968264329099467e-01,4.414592476746165978e-02,2.316961552739590646e-01,-1.940136159051844555e-01,-2.741615995034473729e-01,4.782209004662770629e-02,-3.341779126199069250e-01,1.798633958618333084e-01,-4.258556082688459421e-01,3.291245197345053497e-01,-7.610632694892109917e-01,-4.463455973973828872e-02,-9.811937848968016462e-02,1.162608081043323138e-01,2.460039533563574202e-02,-1.651420261012996327e-01,-4.343533415724749012e-03,-1.456792344479835855e-01
4.026727683325490026e-01,-2.073304910897874886e-01,5.893189418381600264e-01,2.772044059701622154e-01,3.132483556882734166e-01,-1.622879389933471195e-01,-4.465099399948386782e-01,-1.200781143316110161e-01,-3.377956630436347862e-01,2.557466022342375633e-01,-2.777508866356415695e-01,5.494348408736859923e-02,-8.565886562060847087e-01,2.843586586089810186e-01,-2.724106548829863805e-01,1.350909229218186410e-02,-1.416737051151415183e-01,9.881451216571912610e-02,2.067923336355412534e-01,2.079668250576321431e-01
-1.088234240984497971e-03,1.008773068928946887e-01,7.236539227347271730e-01,9.738000651168121635e-02,2.058697059148534014e-01,-2.816962517414567380e-01,-5.285965951010370700e-01,-1.369197031459712666e-01,-6.034056859956327123e-02,1.627084419346364746e-02,-4.107135834060026691e-01,-3.189886893377850974e-02,-4.287093002152670418e-01,1.396047865270679256e-01,-6.989299318193727475e-03,1.384813173620461357e-01,1.072719853999185569e-01,1.533200976336039356e-01,2.870097091761153463e-01,3.511257161266366222e-01
2.745580411691899703e-01,8.306211212112117603e-02,6.599037688677628077e-01,4.173645349452821396e-01,6.670562913065065935e-02,7.783140839624513863e-02,-6.210220389246251527e-01,-2.375398310021543669e-01,-7.519388061274824564e-02,5.000108333558631601e-01,3.089207564466535730e-02,3.443893673965076063e-01,-6.280080852829994509e-01,6.488728093156292953e-02,-6.489246106564996452e-01,5.059010672357348026e-01,3.981528014035751878e-02,8.691882840128531407e-02,1.507178520923979116e-02,-3.547466372245462046e-02
8.975108746944333860e-02,-5.245497421421868589e-02,2.707072106837721814e-01,3.184967259794795891e-01,1.883176519075457633e-01,5.480086460557289652e-01,-6.153678793521794033e-01,-5.270578383115289700e-01,-3.076792885289675317e-01,2.054927900697636478e-01,-3.486022843887445766e-01,7.187625445179927908e-02,-4.168233748559389551e-01,-1.407543223451374892e-01,-8.568265716878622484e-01,2.489646106900313405e-01,9.689321994216763823e-02,1.449685976769222173e-01,1.590251383226307935e-01,-1.387271271206936760e-02
-3.161811494293252922e-01,-1.755825287157506964e-01,1.733308348209373628e-01,8.394228895098440058e-01,-1.902542207134562957e-01,5.723600437598831414e-01,-4.333610034384818288e-01,-6.849867485881149243e-01,-5.123124732041224316e-01,5.660577620741356064e-01,-5.200884489806045091e-02,4.718076881097715281e-01,-1.282286228965264507e-01,-6.463703814009202908e-01,-6.482670855224988982e-01,1.467061021028109313e-01,-7.704636189114319640e-03,5.355128157682885470e-02,2.368920936877876582e-01,7.691568962426645339e-02
-6.586148396307788255e-01,-7.705329620057510542e-02,-4.024639394739598086e-01,8.366424333894014742e-01,-7.871146375772167803e-01,4.385393942674239987e-01,4.868949756914301569e-02,-3.974401878163251745e-01,-1.298666801402093285e-01,4.822658331729053893e-01,-4.422392516214263547e-01,1.366077499526419103e-01,5.769081369910283169e-02,-9.369989910249898468e-01,1.050207221883655423e-01,5.833637149718458037e-01,1.133520526473108248e-01,-3.227214734170949506e-01,-6.785618304347544594e-02,2.375923062377424677e-01
-6.788846590424660876e-01,6.180444424777149504e-01,-4.895873976503962166e-01,5.210230094224254094e-01,-8.610065584000275996e-01,2.299994287825787576e-01,7.728902066286566681e-03,-4.036081853613895376e-01,-2.428654830104821361e-01,-3.820764418845637445e-02,7.035237422374834848e-02,6.525367368336214280e-02,-2.471348966605141084e-01,-2.716900681211084079e-01,3.961345674600133537e-01,2.832007615917226384e-01,-3.798717298243727003e-02,-2.514392336377215334e-02,-1.543312141313087360e-01,-5.878011063189182428e-01
-1.021862442135514470e+00,-1.360198777740933562e-01,-2.290656737121289088e-01,6.616109456365306674e-01,-1.468412438473286175e+00,-9.536603885217348475e-01,1.146430003722427177e-01,-4.607392534126827366e-01,5.443078732258030961e-01,1.787551515342681308e-01,-2.192942778771184154e-01,-7.583491763678134115e-03,-5.727687848213578459e-01,-5.908381835436963270e-01,5.209281957385284573e-02,1.241912828615120701e-01,-3.544199239542926150e-01,-3.540001097630750548e-01,1.983509496879435341e-01,-8.289498648877724474e-01
-2.985425729623133462e-01,-6.578122277682880992e-02,-3.430293639049067922e-01,2.464235679364342180e-01,-1.963724175727239452e-01,-1.164676377576825406e+00,-9.333013919892496624e-03,-1.926934881247723830e-01,1.554392525515888801e+00,1.028573073787080903e-03,2.837443225213069353e-01,7.121790614370546169e-02,-2.238691904446054870e-01,-6.170558601114944919e-01,4.481765385800510204e-01,3.675485533148775130e-01,-8.294365970017067990e-01,8.895193803484639783e-02,8.275462222923900268e-02,-1.712311672543708196e-01
-2.543181532294070402e-01,5.383232295709322601e-01,-1.931306149018186284e-03,3.834434698250627216e-01,9.869257152864089333e-01,-3.551957661056084348e-01,4.673958958693901766e-01,-1.604022276010674264e-01,1.521448002257782539e+00,7.312562495201991863e-01,-2.654124567631401255e-01,-6.914744790895017978e-02,7.328989327728283043e-02,-3.403756170206532206e-01,1.055884795582869573e-01,1.369455203294711820e+00,-5.519028671449711654e-01,2.171030070986419702e-01,-1.153893183061853456e-02,-3.380985277264722533e-01
-5.213129640253105768e-01,6.166271498583455468e-01,7.763930211012963767e-01,1.099946084579565692e-01,1.324386502547807432e+00,1.688431814751305271e-01,2.863548912845386221e-02,-2.157913302441357151e-01,7.067113255930658200e-01,7.716709605229050695e-01,-7.328876472122029806e-02,-2.050334176914229423e-01,-3.380228879030796052e-01,-4.302085449172508569e-01,-4.222044772144801783e-01,9.499160056713861211e-01,-2.454817028333923512e-01,-1.755349925700557812e-01,8.872352898909637853e-01,-8.051702360440335937e-01
-4.954875278799448779e-01,-5.404139852520908199e-02,-4.585351712946128533e-01,1.563435465662789126e-01,4.920581020581776821e-01,-5.518458165777145180e-02,1.937491676078917369e-02,-5.562281478051130934e-01,-1.105789167371348525e-01,3.681197734081030903e-01,2.347272139321020523e-01,-3.101973563841154968e-01,6.378938886834329969e-01,-6.153753544900453232e-01,-1.609350277768602511e-01,6.475436191720007617e-01,-1.338950843238302657e-01,2.745228595650803793e-01,2.378399678295125830e-01,-1.038965552022636185e+00
-3.822835028872635932e-01,8.719553741975069050e-01,-3.965990719205982895e-01,3.579287572057433531e-01,6.380377333208252510e-01,-3.954356183948380399e-01,-4.008200588465117287e-01,-6.642053822993989609e-01,-1.385125052915175681e-01,6.236161980055474618e-01,-3.391266218617124129e-02,-3.401159858872860320e-01,1.471395307975687239e-01,-1.187008977773703622e-01,-2.680086902864082243e-01,7.105778047103212813e-01,-2.992942154542965749e-01,-1.912648891958178624e-02,1.983059178742813400e-01,-8.753393397615294447e-01
-3.291563273821647706e-01,9.215217028803154298e-01,1.314645294967087541e-01,-1.978458544742698472e-02,-9.719413746996308223e-03,-1.639196549153943416e-01,-3.354447287275683087e-01,-7.760007452855897103e-01,1.937914170665195612e-01,-2.087849737704818576e-01,-4.032222980583608507e-01,-7.559621853322446849e-01,-4.776475892576128104e-03,-3.271070610385503064e-01,3.985056761675320192e-01,6.802169170260894404e-01,-4.589738755880511945e-01,-2.252564497101460783e-01,-4.854044085281579157e-01,-9.291268582832832301e-01
-5.334791904758373615e-01,7.990133702195988397e-01,2.248989334942823326e-01,-1.781931819070779466e-01,-1.630977215118155355e-01,3.251217861401308196e-01,2.390419770311704994e-01,-9.356970219561418223e-02,1.077808311220442433e-01,-5.061403195732588900e-01,-3.022127277546378110e-01,-3.860627261182734138e-01,5.005392928865312063e-01,-6.756698299751227876e-02,1.927335195005689950e-01,1.056459820783153036e+00,-5.842299910093557980e-01,2.529342801630579673e-01,-3.237112627440795198e-01,-7.550673574134793009e-01
-1.623264764757323397e-01,4.763098418877715901e-01,-6.816420285615938657e-02,-3.322840465477214233e-01,3.588049133098512034e-01,5.972584175982331711e-01,-1.266127143592300254e-02,-2.775308352083512009e-01,-3.224306704434819482e-01,-1.933595865833218075e-01,-1.648322586871587281e-01,-1.597402637733313091e-01,5.825103146664634135e-01,7.658440111421400687e-01,4.509355473806310743e-01,7.665837773890111784e-01,-6.040579203439605527e-01,5.503221088089051971e-01,2.377007802999554428e-03,-1.739520804018036271e-01
-6.615051562422115394e-02,3.090961741440351185e-01,-3.972860494652378227e-01,-3.927722439203051863e-01,5.804774159496955965e-01,6.286553906570516714e-01,-3.663052027646570008e-01,3.130603729011243730e-01,-9.615623214416779696e-02,-4.347510655395110390e-01,1.566563075753105994e-01,2.415147795956630039e-01,4.167343228583383907e-01,6.044382331787451212e-01,2.809222210327911307e-01,7.485287427874331989e-01,-4.517880467382153764e-01,2.543522576227219556e-01,-2.212666206058832297e-01,4.390738069843203029e-01
3.370383660720169261e-01,-9.918094366204881218e-02,-5.781279533806111814e-01,-4.412384523052040874e-01,5.646338349520374500e-01,6.329128427483129427e-01,-4.962217143334848313e-01,1.192505932271777785e-02,3.920275395810397800e-02,-5.367312308875769045e-01,-2.664525526602648520e-01,2.852431930741531341e-01,5.598884515778583815e-01,5.806894087784632980e-02,2.176913233604440834e-01,3.936165079464415961e-01,-8.962355544858884027e-02,3.382754457460663833e-01,-2.818985003023583569e-01,1.750947701631256903e-01
1.102468220196344273e-01,9.162610892300239451e-02,-2.168556685368996650e-01,-3.035826897016103976e-01,1.292962289027700662e-01,3.666015250678139603e-01,-4.018123475362286312e-01,-1.718425618045246045e-02,7.042227094638009444e-02,-3.447790618245066829e-01,-3.020423937300580342e-01,1.642466266673713315e-01,9.600389715148008318e-02,2.358833755634991494e-02,3.472899010986932322e-01,1.308413380665806591e-01,6.491927207763469043e-02,2.409189386051688309e-01,-1.217094000000875920e-01,3.358318814116186268e-01
9.124208724971755169e-02,1.436598948287730604e-01,-1.679375854918007394e-01,-1.373771178821923955e-01,-2.141535621173380755e-01,3.120578338521095424e-02,-2.271305018456058755e-01,1.008309810771430282e-01,-9.250522254099548258e-02,2.667142439723038660e-02,-4.728052620314549537e-01,1.983139218947307381e-01,-2.485635439587893444e-02,-1.346318211795101139e-01,1.812499411743792310e-01,5.388199838073873954e-02,1.098919872070843878e-01,9.619141894577463991e-02,-2.312796888439145604e-01,-1.758991791753704570e-01
-5.261062455672003285e-02,-1.085484096478405019e-01,8.920063815955051045e-02,7.256662944145667038e-02,-4.213125558986639818e-02,6.399412362168524493e-02,6.008036327976651325e-02,5.976398509971629636e-02,-1.295826857600945563e-02,4.674955949682330775e-03,-9.894977710998053080e-04,1.218574313186642638e-01,-1.143215121816037738e-01,-2.630643316979717691e-02,-7.602946257986331613e-02,1.425253485866626313e-01,1.268737197430388763e-01,1.975528285000403839e-02,7.781970334746876952e-03,1.462472611024499269e-01
4.545031155328978223e-02,1.824257139572536823e-01,-1.289759084792314048e-01,-5.309246997599238738e-02,-1.013590544282163587e-02,-9.701260663084925254e-03,3.095852628605977319e-02,-2.432340111947921268e-02,-6.758745905534753462e-02,-9.166702138925759968e-02,-1.912420219063921609e-02,3.752530988424395558e-02,3.463184458742891991e-02,-1.179795307390182069e-01,-6.887797790777197386e-03,-2.718271940256098210e-02,-1.309423143665208213e-02,6.730924343466092308e-02,-1.957528644670306767e-02,-6.292660730986526785e-02
5.830157112122556079e-02,7.408984756527861593e-02,2.434494617130291555e-02,3.257182097344508281e-02,-3.728915695432932081e-02,-1.113778168620230963e-01,4.948355600483362454e-02,-1.293240417428545286e-01,-6.752480310642348937e-02,1.067933800482114975e-01,3.168821187021928637e-02,-2.169937252494712546e-02,6.596060223660331345e-02,7.745301174503346764e-02,1.245717639950062877e-01,4.277839216542304868e-02,1.247507131180349699e-01,2.946392931871603363e-04,-6.307828231397379082e-02,-2.017064898759318367e-02
-1.950670014159452681e-01,-6.096458217825872702e-03,-1.070249428524221308e-01,4.477113282904367914e-02,1.102127353468813353e-01,-5.579752247060530690e-02,8.048549705431810863e-02,-3.532660067176313784e-02,6.610604543105290387e-02,-5.366693867411063967e-02,8.510592735067434855e-02,-7.653982835726836839e-03,-3.536753020117831131e-02,-7.902786614762640285e-03,2.496483969799625710e-02,1.382656784524800841e-01,-9.478996440383806454e-02,-6.437418076916734400e-02,-8.026725195890489772e-02,1.362245086357290191e-01
5.926029018177439434e-02,1.840491764261560984e-02,-5.042463432164370762e-02,3.205270019657954772e-02,1.223364581370393611e-01,4.660086193494999778e-04,-7.882958949364560208e-02,-5.164806079514911580e-02,-3.735469392307369518e-02,9.677089788512399648e-02,-1.019248786682414726e-01,7.289241442588147678e-03,-1.331576241701326428e-02,-2.957540700568243863e-02,-4.830142207932178883e-02,-8.512043661107977777e-02,6.302842308174513852e-02,-9.491792749165538223e-02,6.428026426974249585e-02,-1.556811395015592348e-01
4.084167734875827904e-02,1.548284921909790501e-01,4.174087655206102504e-02,-1.667701704557767728e-01,-1.356312654312554489e-01,6.337314106036101569e-02,-1.951788415172633906e-01,-9.534431328224625413e-02,6.617172372795576685e-02,-5.714469432388795574e-03,-1.244163441148359583e-01,4.279746864659127459e-01,-8.401727838907757651e-02,-1.625916019933070639e-02,-1.363763058985683341e-01,-1.512640941501382751e-02,9.719097361193662979e-03,-1.419536317459361291e-02,3.923121865934765112e-02,1.613333741102716823e-01
8.118822556632104837e-02,3.669622502169985617e-02,2.217360378546494593e-01,-1.675488820573408644e-01,7.972950981748147536e-02,2.328210016594403631e-02,-2.007330831447868332e-03,1.073351665752705041e-02,-2.445662475709323991e-01,1.502498253110894910e-01,5.094902180188825994e-04,3.483698479899056122e-01,-1.151507190064048058e-01,7.088212484248855583e-02,-1.505552100556624695e-01,1.007519465972944034e-01,1.726796207597092458e-01,-1.130943183705240135e-01,1.184603099274299243e-01,-1.282144172958863890e-02
1.859363766044664912e-01,5.076242283614501583e-02,6.965955632330478320e-01,-2.206129682993074326e-01,2.192821454821298199e-01,-3.023325653789032952e-01,-5.244194058687396964e-01,-2.495855816379656256e-01,-2.995827181493972979e-01,6.962698125102282365e-01,-5.687714027887207369e-01,3.960425581759333680e-01,-5.731932070477058216e-01,1.966776426358327057e-02,-2.828226289307021468e-01,-5.549187647614706176e-02,2.496253834020971951e-01,-1.878154181702020309e-01,6.480287329867540080e-02,-8.050435621697773006e-03
4.959966348794261348e-01,-2.522456733429806475e-01,3.625682906838368358e-01,-2.425971544284492021e-01,3.611033594800570901e-02,-1.650032048769161652e-01,-2.607909824622567929e-01,-5.010599277196217116e-01,-5.526026897174071001e-02,1.025688442734284500e+00,-3.108500316326184842e-01,3.244478645283904172e-01,-5.853380105943809530e-01,-2.337517740073961209e-02,-5.335363836418743899e-02,1.278808964226447187e-01,1.504728831721621751e-01,5.244110994061133846e-02,4.157653680974626731e-01,-2.672619987982284839e-01
1.934340063801181231e-01,-1.455067599415336976e-01,3.693064249698000956e-01,5.658697651604362999e-01,-6.757848811197966765e-02,1.631282112398350359e-01,-6.937099581913862278e-02,-6.305517527856822069e-01,1.998339258523497974e-01,6.202404781360001396e-01,-3.810817117517857344e-01,1.939327323485397492e-01,-2.332136059768190606e-01,-2.020754521404390103e-01,2.805055911205971975e-01,2.919149600384617904e-01,1.219441491673046163e-01,3.156046915414139620e-01,6.091086555321354457e-01,-1.373190624083504563e-01
3.475271055211743843e-01,1.954895914125170664e-01,-1.597414297109035486e-01,1.845403180625125594e-02,3.342829353129582182e-01,2.639380897742140686e-01,-5.337271143332131818e-01,-8.402648464383473126e-01,3.318495584227846296e-01,3.481567002028818081e-01,-3.810852392967958302e-01,4.226493088804940124e-01,-2.401548853496716096e-01,-1.253250203896595916e-01,-4.015334039194706772e-01,4.168343358128871468e-01,2.091205895101966861e-01,-1.229478211335680582e-01,-1.123024299758177691e-01,-2.591219189276092738e-01
1.286415674981727375e-01,1.924724576342404236e-01,5.403370523250932145e-01,-9.136334329036811808e-02,7.300011509434742307e-02,6.890048405077450755e-02,-6.509941702658464946e-01,-1.011205578200463862e+00,-1.583338931926260851e-01,4.463832031312550686e-01,-3.494892096858414621e-01,-1.062687266184577234e-01,-1.961848242372827844e-01,-4.582724996934530726e-01,-7.581187894642948955e-01,-2.681413708856988376e-01,-4.328222060649339342e-01,-2.219182983953141286e-02,5.247358970927205046e-01,-2.049702127824674369e-01
1.019809253784895696e-02,-4.041253704424164206e-01,-3.796359606076592508e-01,7.528000502399652127e-01,-4.696303414149844424e-01,1.550334686709800569e-01,3.380672754969655386e-02,-1.189806123519262071e+00,-1.921066686181200633e-01,7.711454396577740455e-01,3.138898419356305758e-01,2.985642862091602012e-01,-3.213131879061059334e-03,-4.551750403496305220e-01,-4.941780285056249222e-01,-2.047012343878838736e-02,-1.094506322630634798e-01,3.638743937606805368e-01,7.654588509791784290e-01,-9.102070130446558716e-02
-1.910884704077129015e-01,-1.213859390441279079e-01,-2.996197067601727784e-02,7.163058261426608064e-01,-2.005774823135044294e+00,-4.378081508926881527e-01,1.636225980814527969e-01,-7.404586458235319357e-01,-3.560621786622722995e-01,1.084833078888425728e+00,4.410345697938117260e-01,1.035513445885343081e-01,-1.970961356727064240e-01,-5.988746069254007320e-01,-8.151441459102655163e-01,-2.187726230862075683e-01,-8.456458410307229334e-01,4.783409043677446237e-01,3.343898394534049467e-01,1.234599720251454980e-01
1.766046876477029015e-01,3.109892655400521844e-01,1.694808387251449389e-02,6.744669066382411593e-01,-2.333207891080396390e+00,-9.240301015583539668e-01,2.117376576658155929e-01,-4.625776342384675943e-01,-4.135058378267107426e-01,8.627318957248604203e-01,2.878403864786384103e-01,1.782349115879558743e-01,-2.029211515259590481e-01,-3.691410832980787093e-01,-5.867478231597451910e-02,1.695846463005644122e-01,-1.936696644216641949e-01,2.181041849356346873e-01,6.558110282316925721e-01,3.217118391074927797e-03
-4.204040880605221936e-02,1.015887950618191982e-01,-3.240569917785258713e-01,4.502191134569704656e-01,-4.217033576438573572e-01,-1.042498177947358995e+00,-2.428107875500681856e-01,-5.152872733067258570e-01,1.236114634434376802e-01,4.452842760209190787e-01,-1.627507268714270539e-01,1.573854704524999537e-01,-5.961539280245612554e-02,-5.500362222870809337e-01,-2.035257997630917359e-01,2.107844547062810159e-01,-3.328364847408078059e-02,3.176322229940488073e-01,2.007495160351188968e-01,-1.695210248313443746e-01
-3.056417279041752089e-01,2.505655264059699835e-02,3.546967749966765671e-01,2.742882799169380492e-01,-5.193990247525988035e-01,-7.741511344803260197e-01,-7.272679894977335247e-01,-4.499062467448570191e-01,1.369050086759481477e+00,1.834536759483405485e-02,-4.298954730825833570e-01,-1.042897359092263276e-01,4.573485589876791907e-03,-2.625343776815699526e-01,-7.528277484671200837e-01,1.841263091505424554e-01,4.627499768015856663e-02,-3.196281963796512304e-01,-2.427262523683732243e-01,6.187694805282667465e-01
2.330420847725307720e-01,-4.113087272756973944e-01,-1.247797052584569411e-01,5.435112713050096467e-01,-1.421862729616380161e+00,-1.260158646908693836e+00,1.519478825787353993e-01,-3.163191045847402183e-01,2.613389998535388781e+00,-4.906341474976297357e-02,1.248823758526383526e-01,2.472439150840108624e-01,1.269890371009076424e-01,-2.550362195829395384e-01,-4.486344160561424044e-01,-5.456885917360659866e-01,-1.752884817735611833e-01,2.470313840313378695e-01,-2.693129948094953874e-01,-3.312091438756033512e-01
-1.297863651541785734e-01,3.992064197417661275e-01,1.551830758166661273e-01,-2.087295496740858569e-01,-1.128534567075451633e+00,-7.363924005289802510e-01,7.083604523032033251e-02,-8.759235861176342119e-01,5.713928072307690176e-01,7.177358272499755332e-01,-1.672515786961164749e-02,4.181412020361311987e-01,3.588487405250757045e-01,-1.154604485441394213e-01,-4.381419250561064960e-01,-6.180402832060110513e-02,2.991574546515664568e-01,1.205368483054898160e-01,1.628802245925788927e-01,-3.618639407037739786e-01
-4.192676364209934059e-01,-1.188324894429368117e-01,-4.824096408402344105e-01,-1.479599552521262407e-01,-8.392117980821618417e-01,-6.275721700367828566e-03,1.889987720641344293e-01,-1.066250883056778287e+00,-7.768113864698288351e-01,3.396600448982329823e-01,-1.496773213540761316e-01,-2.071499690968885699e-01,5.709097797110256334e-01,1.250175914918856546e-01,-2.670249072370083909e-01,8.611489145914023036e-01,1.093947827862937622e-01,4.152024498837272870e-01,-2.148859654743382197e-01,-2.884751336261446308e-01
-3.552874469382680950e-02,5.343999653719786469e-01,-1.630821268836303295e-01,3.412521643741527749e-02,-1.224262936170582794e+00,-1.937408244546335034e-01,-4.866198105434931254e-01,-6.652390039857715154e-01,-5.536199903381781168e-02,1.120596621675603588e-01,-2.716166541993161321e-01,-6.541054973341285939e-01,1.089450491930540332e-01,5.830068241414497754e-01,-9.986941893988514340e-02,6.543079269851852509e-01,-1.497124404850973811e-01,5.182051637070195227e-01,3.118100306541157773e-01,8.824113550282237928e-02
-2.793132779738402918e-02,6.110121619220560962e-01,-4.881477024215588600e-01,3.413677462413703539e-02,-8.914666152150572120e-01,-8.987549716216181039e-03,1.519646475317105484e-02,-2.406962106895899622e-01,3.584710343717041614e-02,4.198738702152536584e-02,7.084861077488019410e-02,-1.686999833901534074e-01,7.275142669580235422e-02,-2.650903415471378421e-01,-9.543047270027261997e-02,1.046966618368068369e+00,-3.670236111258962097e-02,5.614632397920741314e-01,-1.216226213541775625e-01,-2.955031414743443108e-01
-6.305124356906397498e-01,5.936920841575548113e-01,-2.128642610615434361e-01,3.360431555540668302e-01,-4.449161280492375803e-01,1.649578643447581761e-01,-3.325437118325419439e-01,-1.485590640934012496e-01,-3.340229634834390726e-01,6.099241215359147983e-01,1.841826542994195737e-01,-4.893145181188642279e-01,-5.037072640073788632e-01,-4.423389067775851391e-02,-1.418173322664468272e-01,9.758112495036408429e-01,5.105983249265377832e-01,6.684980336057637362e-02,-2.473340938915446485e-01,3.440355160744810320e-02
-6.536942931748503452e-03,-8.996237413904466240e-02,-2.612604059746536089e-01,1.305450060891393815e-01,-5.128371780475683012e-02,1.581383404778382851e-01,-1.078336152772811779e-01,-2.317425472146800516e-03,-5.848432099727874922e-01,5.453468609432543523e-01,-1.132578140851145249e-01,1.980187707225635474e-01,-4.618405429538719464e-01,1.668144019208884776e-01,-2.980465610286658351e-01,9.776612771697692494e-01,4.531765423644485424e-01,5.564083485356525749e-01,-5.010281349762499836e-01,-2.961709595429928843e-02
-6.688003031601731652e-02,3.771358273207909423e-02,-2.780452671034250867e-01,-2.378089749160551825e-01,8.535756848739817215e-01,9.429885033414524553e-01,-2.480038120841616678e-01,6.880940592009514578e-01,-5.774335372678847111e-01,-2.587843284791235474e-02,-4.717020565412514271e-02,7.040825241033257798e-02,7.624737100689188418e-01,3.258890431687342382e-01,-7.501752169832230643e-02,8.305300295478016404e-01,-2.551290894958433905e-02,6.155042388423344057e-01,-8.208422971508910759e-01,5.414930237768648125e-01
-9.535354884962893296e-02,2.693722596240317735e-01,-5.270805245542047324e-01,-9.285959671643150282e-01,1.137948776414178909e+00,1.074438664591411241e+00,-2.537045816881577931e-01,3.322769815385644421e-01,-1.271701926643838132e-01,-4.742470960035878869e-01,-2.345486874512635878e-01,5.745620736510391735e-01,1.042686479125888299e+00,8.670035521174544735e-02,3.073875049576695329e-01,5.656064414235204563e-01,-3.585403038827065236e-01,4.146904582433302844e-01,-5.884667523314730531e-01,-4.520400178810819736e-02
-2.192800615464106373e-01,6.164314059314274230e-01,-5.930570683477872640e-01,-7.375997321156642084e-01,6.426789579963556598e-01,9.499196961861949839e-01,-2.384505839559801776e-01,5.404159384166988822e-01,3.013922633753691183e-01,-8.443437816224795833e-01,-3.354256472316823889e-01,4.730935519053275362e-01,6.746207822773085949e-01,-2.551123032909350385e-01,2.154307412232073504e-01,5.928200472686377953e-01,-4.292797350180258542e-01,5.585475666274006823e-01,-1.775540376554244348e-01,-6.095691992696230643e-04
-1.094328723951308868e-01,5.033600013242364168e-01,-2.622319468299010858e-01,-2.500894183341861310e-01,9.241566130884627805e-02,4.109071777270210113e-01,-1.289840611643930102e-01,4.259193872357776023e-01,2.422460861751489225e-01,-3.023520842781824425e-01,-4.605761043415024236e-01,3.724335816931830800e-01,2.191609405511364683e-01,-2.926585204508029281e-01,4.457415976410391556e-01,3.672850368641029650e-01,-2.040983106154834748e-01,2.950973130255963861e-01,-1.627745479440730059e-01,-3.479501054908191726e-01
-2.280396995910567159e-01,2.075136937676004267e-01,-3.241675473378131667e-01,-3.403577704802373538e-01,1.326935229233794887e-02,1.419184105611251689e-01,2.974095014351045216e-02,1.067903094540192666e-01,3.306825792728705360e-01,-2.764572510386350546e-01,-1.321070736373458447e-02,6.563377262453613803e-02,1.817536187634299361e-01,-1.462083538453353149e-01,2.552652586712137600e-02,1.490077473087980386e-01,-7.918193463205357163e-02,3.228088343980809599e-02,-8.046592591256426785e-02,-2.140796892135039819e-02
